{"learner":{"attributes":{"scikit_learn":"{\"_estimator_type\": \"classifier\"}"},"feature_names":["Pregnancies","Glucose","BloodPressure","SkinThickness","Insulin","BMI","DiabetesPedigreeFunction","Age"],"feature_types":["int","float","int","int","int","float","float","int"],"gradient_booster":{"model":{"gbtree_model_param":{"num_parallel_tree":"1","num_trees":"300"},"iteration_indptr":[0,1,2,3,4,5,6,7,8,9,10,11,12,13,14,15,16,17,18,19,20,21,22,23,24,25,26,27,28,29,30,31,32,33,34,35,36,37,38,39,40,41,42,43,44,45,46,47,48,49,50,51,52,53,54,55,56,57,58,59,60,61,62,63,64,65,66,67,68,69,70,71,72,73,74,75,76,77,78,79,80,81,82,83,84,85,86,87,88,89,90,91,92,93,94,95,96,97,98,99,100,101,102,103,104,105,106,107,108,109,110,111,112,113,114,115,116,117,118,119,120,121,122,123,124,125,126,127,128,129,130,131,132,133,134,135,136,137,138,139,140,141,142,143,144,145,146,147,148,149,150,151,152,153,154,155,156,157,158,159,160,161,162,163,164,165,166,167,168,169,170,171,172,173,174,175,176,177,178,179,180,181,182,183,184,185,186,187,188,189,190,191,192,193,194,195,196,197,198,199,200,201,202,203,204,205,206,207,208,209,210,211,212,213,214,215,216,217,218,219,220,221,222,223,224,225,226,227,228,229,230,231,232,233,234,235,236,237,238,239,240,241,242,243,244,245,246,247,248,249,250,251,252,253,254,255,256,257,258,259,260,261,262,263,264,265,266,267,268,269,270,271,272,273,274,275,276,277,278,279,280,281,282,283,284,285,286,287,288,289,290,291,292,293,294,295,296,297,298,299,300],"tree_info":[0,0,0,0,0,0,0,0,0,0,0,0,0,0,0,0,0,0,0,0,0,0,0,0,0,0,0,0,0,0,0,0,0,0,0,0,0,0,0,0,0,0,0,0,0,0,0,0,0,0,0,0,0,0,0,0,0,0,0,0,0,0,0,0,0,0,0,0,0,0,0,0,0,0,0,0,0,0,0,0,0,0,0,0,0,0,0,0,0,0,0,0,0,0,0,0,0,0,0,0,0,0,0,0,0,0,0,0,0,0,0,0,0,0,0,0,0,0,0,0,0,0,0,0,0,0,0,0,0,0,0,0,0,0,0,0,0,0,0,0,0,0,0,0,0,0,0,0,0,0,0,0,0,0,0,0,0,0,0,0,0,0,0,0,0,0,0,0,0,0,0,0,0,0,0,0,0,0,0,0,0,0,0,0,0,0,0,0,0,0,0,0,0,0,0,0,0,0,0,0,0,0,0,0,0,0,0,0,0,0,0,0,0,0,0,0,0,0,0,0,0,0,0,0,0,0,0,0,0,0,0,0,0,0,0,0,0,0,0,0,0,0,0,0,0,0,0,0,0,0,0,0,0,0,0,0,0,0,0,0,0,0,0,0,0,0,0,0,0,0,0,0,0,0,0,0,0,0,0,0,0,0,0,0,0,0,0,0,0,0,0,0,0,0,0,0,0,0,0,0],"trees":[{"base_weights":[-2.0523753E-2,-6.4938605E-1,1.0555838E0,-1.135893E0,-6.137903E-3,-2.6620987E-1,1.5630728E0,-1.4186564E-1,-7.2042847E-1,-1.0211732E0,4.5346767E-1,-8.1054115E-1,4.3184954E-1,9.981913E-1,2.1711805E0,8.427619E-2,-8.7926126E-1,-1.1440485E0,1.1563736E-2,-9.506402E-1,8.02757E-1,-9.599584E-1,1.1563736E-2,-1.3111958E-1,1.016475E0,4.1534805E-1,1.4708952E0,2.2465013E-1,5.832947E-2,-9.93996E-2,1.1326771E-1,-1.2372168E0,-2.6764193E-1,-1.2635715E-1,-4.594534E-1,1.1563736E-2,-1.2236019E-1,-5.114872E-1,1.0599266E0,-1.1909961E-1,-5.114872E-1,4.5611995E-1,-8.8896595E-2,1.7528142E-1,-3.5202004E-2,1.2129261E0,-4.5135567E-1,2.1058287E-2,1.6528903E0,-4.36507E-3,-1.3907592E-1,3.5818126E-2,-1.1271693E-1,1.1563736E-2,-8.1967734E-2,-9.460906E-2,6.9340537E-3,1.3018985E-1,-5.848122E-3,2.1058287E-2,-9.93996E-2,1.1563736E-2,5.832947E-2,2.7717045E-2,1.6271488E-1,-9.927028E-2,8.016645E-2,8.9840345E-2,2.1292642E-1],"categories":[],"categories_nodes":[],"categories_segments":[],"categories_sizes":[],"default_left":[0,0,0,0,0,0,0,0,0,0,0,0,0,0,0,0,0,0,0,0,0,0,0,0,0,0,0,0,0,0,0,0,0,0,0,0,0,0,0,0,0,0,0,0,0,0,0,0,0,0,0,0,0,0,0,0,0,0,0,0,0,0,0,0,0,0,0,0,0],"id":0,"left_children":[1,3,5,7,9,11,13,-1,15,17,19,21,23,25,27,29,31,33,-1,35,37,39,-1,41,43,45,47,-1,-1,-1,-1,49,51,-1,53,-1,-1,55,57,-1,59,61,-1,-1,-1,63,65,-1,67,-1,-1,-1,-1,-1,-1,-1,-1,-1,-1,-1,-1,-1,-1,-1,-1,-1,-1,-1,-1],"loss_changes":[9.5804214E1,2.7949451E1,3.5447937E1,4.9527054E0,1.8878847E1,6.179922E0,1.0845367E1,0E0,2.9662685E0,1.8938503E0,1.4428898E1,1.3520923E0,2.5604463E0,5.3097477E0,7.696991E-1,6.374175E0,3.8253937E0,3.5818577E-1,0E0,1.8903136E0,8.266992E0,2.0210743E-1,0E0,2.471613E0,4.377637E0,8.16325E0,2.28339E0,0E0,0E0,0E0,0E0,2.0835056E0,4.8604584E0,0E0,7.735779E-1,0E0,0E0,1.1800675E0,5.3372536E0,0E0,1.7475107E0,7.443035E-2,0E0,0E0,0E0,1.8780031E0,4.871559E0,0E0,1.637703E0,0E0,0E0,0E0,0E0,0E0,0E0,0E0,0E0,0E0,0E0,0E0,0E0,0E0,0E0,0E0,0E0,0E0,0E0,0E0,0E0],"parents":[2147483647,0,0,1,1,2,2,3,3,4,4,5,5,6,6,8,8,9,9,10,10,11,11,12,12,13,13,14,14,15,15,16,16,17,17,19,19,20,20,21,21,23,23,24,24,25,25,26,26,31,31,32,32,34,34,37,37,38,38,40,40,41,41,45,45,46,46,48,48],"right_children":[2,4,6,8,10,12,14,-1,16,18,20,22,24,26,28,30,32,34,-1,36,38,40,-1,42,44,46,48,-1,-1,-1,-1,50,52,-1,54,-1,-1,56,58,-1,60,62,-1,-1,-1,64,66,-1,68,-1,-1,-1,-1,-1,-1,-1,-1,-1,-1,-1,-1,-1,-1,-1,-1,-1,-1,-1,-1],"split_conditions":[1.28E2,2.9E1,3E1,3.1E1,1E2,1.46E2,1.58E2,-1.4186564E-1,8E0,5.1E1,2.63E1,2.9E1,4.1E1,3.1E1,5.1E2,1.08E2,4.91E-1,9.5E1,1.1563736E-2,2.21E1,1.99E-1,3E0,1.1563736E-2,7.5E1,5.4E1,7.4E1,2.04E-1,2.2465013E-1,5.832947E-2,-9.93996E-2,1.1326771E-1,3.21E1,7E1,-1.2635715E-1,9.8E1,1.1563736E-2,-1.2236019E-1,6E0,8.5E1,-1.1909961E-1,5E0,3E0,-8.8896595E-2,1.7528142E-1,-3.5202004E-2,3.04E-1,4.2E1,2.1058287E-2,4.2E1,-4.36507E-3,-1.3907592E-1,3.5818126E-2,-1.1271693E-1,1.1563736E-2,-8.1967734E-2,-9.460906E-2,6.9340537E-3,1.3018985E-1,-5.848122E-3,2.1058287E-2,-9.93996E-2,1.1563736E-2,5.832947E-2,2.7717045E-2,1.6271488E-1,-9.927028E-2,8.016645E-2,8.9840345E-2,2.1292642E-1],"split_indices":[1,7,5,5,1,1,1,0,3,7,5,3,7,7,4,1,6,1,0,5,6,0,0,2,7,2,6,0,0,0,0,5,2,0,1,0,0,0,2,0,0,0,0,0,0,6,5,0,7,0,0,0,0,0,0,0,0,0,0,0,0,0,0,0,0,0,0,0,0],"split_type":[0,0,0,0,0,0,0,0,0,0,0,0,0,0,0,0,0,0,0,0,0,0,0,0,0,0,0,0,0,0,0,0,0,0,0,0,0,0,0,0,0,0,0,0,0,0,0,0,0,0,0,0,0,0,0,0,0,0,0,0,0,0,0,0,0,0,0,0,0],"sum_hessian":[1.3955774E2,8.833345E1,5.1224297E1,4.9858315E1,3.8475136E1,1.4342802E1,3.6881493E1,2.8230278E1,2.1628035E1,1.161084E1,2.6864296E1,7.9682236E0,6.374579E0,2.0489717E1,1.6391775E1,3.6426165E0,1.7985418E1,1.0472523E1,1.1383177E0,5.008598E0,2.18557E1,6.829906E0,1.1383177E0,3.6426165E0,2.7319624E0,1.0017196E1,1.0472523E1,1.5253457E1,1.1383177E0,1.8213083E0,1.8213083E0,1.0700186E1,7.285233E0,8.195888E0,2.2766354E0,1.1383177E0,3.87028E0,3.414953E0,1.8440746E1,3.414953E0,3.414953E0,2.2766354E0,1.3659812E0,1.5936447E0,1.1383177E0,5.008598E0,5.008598E0,1.5936447E0,8.878878E0,1.3659812E0,9.334205E0,4.553271E0,2.7319624E0,1.1383177E0,1.1383177E0,1.5936447E0,1.8213083E0,1.5025793E1,3.414953E0,1.5936447E0,1.8213083E0,1.1383177E0,1.1383177E0,2.048972E0,2.959626E0,3.6426165E0,1.3659812E0,4.553271E0,4.3256073E0],"tree_param":{"num_deleted":"0","num_feature":"8","num_nodes":"69","size_leaf_vector":"1"}},{"base_weights":[-2.0462736E-2,-6.0555214E-1,9.390549E-1,-1.0688107E0,-1.3847643E-2,-2.4714328E-1,1.3756123E0,-1.3442135E0,-6.7333376E-1,-1.1267872E0,3.412715E-1,-7.6619565E-1,4.0130392E-1,9.0134346E-1,1.8688779E0,-1.374923E-1,-4.8908856E-2,5.5872644E-3,-8.4808093E-1,-1.2904182E-1,-3.2244485E-2,-9.421312E-1,6.4707977E-1,-9.111459E-1,1.0927131E-2,-1.2298878E-1,9.3506086E-1,3.855654E-1,1.3080672E0,1.939602E0,4.66313E-2,-7.66467E-2,8.58846E-2,-2.1365751E-1,-1.180752E0,1.194729E-2,-1.1981435E-1,2.7983755E-1,1.3729384E0,-1.1339604E-1,-4.8392966E-1,4.2864734E-1,-8.521014E-2,1.5970491E-1,-3.3529837E-2,1.7338927E-1,-7.7745214E-2,5.229312E-1,1.6399552E0,2.0209539E-1,4.66313E-2,-8.695726E-2,4.6855062E-2,-4.1643098E-2,-1.321388E-1,7.077299E-2,-4.247309E-2,1.5813242E-1,5.8913208E-3,1.9685198E-2,-9.500978E-2,5.6443136E-2,9.380975E-3,-8.407797E-2,3.6840186E-2,4.6540205E-3,6.578411E-2,1.9137985E-1,4.6540205E-3],"categories":[],"categories_nodes":[],"categories_segments":[],"categories_sizes":[],"default_left":[0,0,0,0,0,0,0,0,0,0,0,0,0,0,0,0,0,0,0,0,0,0,0,0,0,0,0,0,0,0,0,0,0,0,0,0,0,0,0,0,0,0,0,0,0,0,0,0,0,0,0,0,0,0,0,0,0,0,0,0,0,0,0,0,0,0,0,0,0],"id":1,"left_children":[1,3,5,7,9,11,13,15,17,19,21,23,25,27,29,-1,-1,31,33,-1,-1,35,37,39,-1,41,43,45,47,49,-1,-1,-1,51,53,-1,-1,55,57,-1,59,61,-1,-1,-1,-1,63,65,67,-1,-1,-1,-1,-1,-1,-1,-1,-1,-1,-1,-1,-1,-1,-1,-1,-1,-1,-1,-1],"loss_changes":[7.914363E1,2.3984512E1,2.7997387E1,4.441902E0,1.5980004E1,5.428803E0,7.484314E0,6.1164856E-2,2.6334248E0,8.707962E-1,1.2651547E1,1.2156215E0,2.1917331E0,4.09251E0,9.088402E-1,0E0,0E0,4.300579E0,3.4681692E0,0E0,0E0,1.8584356E0,6.3787746E0,1.7969608E-1,0E0,2.2264354E0,3.7257266E0,7.0558834E0,2.2260036E0,1.1054535E0,0E0,0E0,0E0,3.6671526E0,6.6902065E-1,0E0,0E0,5.7583055E0,2.17072E0,0E0,1.573126E0,9.707183E-2,0E0,0E0,0E0,0E0,3.4426265E0,2.8971422E-1,3.3360443E0,0E0,0E0,0E0,0E0,0E0,0E0,0E0,0E0,0E0,0E0,0E0,0E0,0E0,0E0,0E0,0E0,0E0,0E0,0E0,0E0],"parents":[2147483647,0,0,1,1,2,2,3,3,4,4,5,5,6,6,7,7,8,8,9,9,10,10,11,11,12,12,13,13,14,14,17,17,18,18,21,21,22,22,23,23,25,25,26,26,27,27,28,28,29,29,33,33,34,34,37,37,38,38,40,40,41,41,46,46,47,47,48,48],"right_children":[2,4,6,8,10,12,14,16,18,20,22,24,26,28,30,-1,-1,32,34,-1,-1,36,38,40,-1,42,44,46,48,50,-1,-1,-1,52,54,-1,-1,56,58,-1,60,62,-1,-1,-1,-1,64,66,68,-1,-1,-1,-1,-1,-1,-1,-1,-1,-1,-1,-1,-1,-1,-1,-1,-1,-1,-1,-1],"split_conditions":[1.28E2,2.9E1,3E1,3.1E1,9.5E1,1.46E2,1.58E2,5E0,2.1E1,1E1,2.63E1,2.9E1,4.1E1,3.1E1,4.58E1,-1.374923E-1,-4.8908856E-2,1.08E2,6.5E1,-1.2904182E-1,-3.2244485E-2,2.1E1,5.14E-1,3E0,1.0927131E-2,7.5E1,5.4E1,6.1E1,1.6E1,1.222E0,4.66313E-2,-7.66467E-2,8.58846E-2,4.79E-1,1.4E1,1.194729E-2,-1.1981435E-1,2.8E1,4.1E1,-1.1339604E-1,5E0,9.9E1,-8.521014E-2,1.5970491E-1,-3.3529837E-2,1.7338927E-1,3.04E-1,4E0,1.49E2,2.0209539E-1,4.66313E-2,-8.695726E-2,4.6855062E-2,-4.1643098E-2,-1.321388E-1,7.077299E-2,-4.247309E-2,1.5813242E-1,5.8913208E-3,1.9685198E-2,-9.500978E-2,5.6443136E-2,9.380975E-3,-8.407797E-2,3.6840186E-2,4.6540205E-3,6.578411E-2,1.9137985E-1,4.6540205E-3],"split_indices":[1,7,5,5,1,1,1,0,3,0,5,3,7,7,5,0,0,1,2,0,0,5,6,0,0,2,7,2,3,6,0,0,0,6,4,0,0,3,3,0,0,4,0,0,0,0,6,0,1,0,0,0,0,0,0,0,0,0,0,0,0,0,0,0,0,0,0,0,0],"split_type":[0,0,0,0,0,0,0,0,0,0,0,0,0,0,0,0,0,0,0,0,0,0,0,0,0,0,0,0,0,0,0,0,0,0,0,0,0,0,0,0,0,0,0,0,0,0,0,0,0,0,0,0,0,0,0,0,0,0,0,0,0,0,0,0,0,0,0,0,0],"sum_hessian":[1.3896167E2,8.655285E1,5.240882E1,4.8093246E1,3.84596E1,1.4215862E1,3.819296E1,2.6936329E1,2.115692E1,8.777626E0,2.968197E1,7.7948537E0,6.421009E0,2.0912828E1,1.728013E1,2.541573E1,1.5205992E0,4.529011E0,1.6627909E1,6.791655E0,1.985971E0,5.3112335E0,2.4370737E1,6.6526294E0,1.1422242E0,3.627454E0,2.7935553E0,1.0079149E1,1.0833679E1,1.6086094E1,1.1940361E0,2.4310455E0,2.0979652E0,6.284755E0,1.0343153E1,1.135596E0,4.1756372E0,1.7103094E1,7.2676444E0,3.285025E0,3.3676043E0,2.2996607E0,1.3277934E0,1.6674688E0,1.1260864E0,1.8763102E0,8.202839E0,3.984147E0,6.8495326E0,1.4892057E1,1.1940361E0,3.0641026E0,3.2206528E0,2.222964E0,8.12019E0,1.0638018E1,6.4650755E0,6.0972815E0,1.1703631E0,1.6035454E0,1.7640588E0,1.1483091E0,1.1513516E0,2.7002065E0,5.502632E0,1.1760998E0,2.8080473E0,5.673433E0,1.1760998E0],"tree_param":{"num_deleted":"0","num_feature":"8","num_nodes":"69","size_leaf_vector":"1"}},{"base_weights":[-1.9592436E-2,-5.657813E-1,8.452116E-1,-1.0108304E0,-1.594774E-2,-2.3076144E-1,1.2291873E0,-1.2820868E0,-6.312047E-1,-9.158456E-1,3.631268E-1,-7.262469E-1,3.738239E-1,8.8287747E-1,1.757289E0,-1.3121952E-1,-4.6491314E-2,2.8125992E-2,-7.401508E-1,-1.0380515E0,1.3664685E-2,-8.451185E-1,6.3850003E-1,-8.6742043E-1,1.0326027E-2,-1.1583161E-1,8.654252E-1,1.13386E0,-2.976989E-2,1.8417989E-1,4.386061E-2,-1.0964512E0,-1.01568386E-1,-1.1424875E0,-4.4519895E-1,1.1700403E-2,-1.11101106E-1,-5.078334E-1,8.5629624E-1,-1.0835481E-1,-4.588026E-1,4.0303576E-1,-8.1822E-2,1.4690837E-1,-3.1945318E-2,6.207466E-1,1.3428166E0,-7.0098746E-1,1.3809036E-1,-5.340581E-3,-1.2192817E-1,8.6332515E-2,-5.801787E-2,-1.2280625E-1,-3.6564272E-2,1.0598584E-2,-7.930824E-2,-9.154067E-2,3.6671616E-3,1.0580831E-1,-9.535316E-3,1.8405622E-2,-9.102359E-2,7.821928E-3,5.4123938E-2,-3.5377603E-2,8.4026776E-2,1.5821332E-1,7.1500994E-2,2.7680937E-3,-9.240556E-2],"categories":[],"categories_nodes":[],"categories_segments":[],"categories_sizes":[],"default_left":[0,0,0,0,0,0,0,0,0,0,0,0,0,0,0,0,0,0,0,0,0,0,0,0,0,0,0,0,0,0,0,0,0,0,0,0,0,0,0,0,0,0,0,0,0,0,0,0,0,0,0,0,0,0,0,0,0,0,0,0,0,0,0,0,0,0,0,0,0,0,0],"id":2,"left_children":[1,3,5,7,9,11,13,15,17,19,21,23,25,27,29,-1,-1,-1,31,33,-1,35,37,39,-1,41,43,45,47,-1,-1,49,51,53,55,-1,-1,57,59,-1,61,63,-1,-1,-1,65,67,69,-1,-1,-1,-1,-1,-1,-1,-1,-1,-1,-1,-1,-1,-1,-1,-1,-1,-1,-1,-1,-1,-1,-1],"loss_changes":[6.590006E1,2.0903223E1,2.2599907E1,4.054329E0,1.372473E1,4.779402E0,5.7579613E0,4.3842316E-2,2.3606977E0,1.6749706E0,9.968413E0,1.0978599E0,1.890712E0,6.0231247E0,8.43647E-1,0E0,0E0,0E0,4.3524694E0,1.5980148E-1,0E0,1.5856891E0,6.3390865E0,1.620655E-1,0E0,2.0092828E0,3.2085617E0,1.3680229E0,7.230783E0,0E0,0E0,1.5351534E0,4.254581E0,1.18733406E-1,7.082799E-1,0E0,0E0,1.0108007E0,3.9885426E0,0E0,1.4202527E0,1.0672158E-1,0E0,0E0,0E0,1.9662907E0,9.3188286E-1,8.61866E-1,0E0,0E0,0E0,0E0,0E0,0E0,0E0,0E0,0E0,0E0,0E0,0E0,0E0,0E0,0E0,0E0,0E0,0E0,0E0,0E0,0E0,0E0,0E0],"parents":[2147483647,0,0,1,1,2,2,3,3,4,4,5,5,6,6,7,7,8,8,9,9,10,10,11,11,12,12,13,13,14,14,18,18,19,19,21,21,22,22,23,23,25,25,26,26,27,27,28,28,31,31,32,32,33,33,34,34,37,37,38,38,40,40,41,41,45,45,46,46,47,47],"right_children":[2,4,6,8,10,12,14,16,18,20,22,24,26,28,30,-1,-1,-1,32,34,-1,36,38,40,-1,42,44,46,48,-1,-1,50,52,54,56,-1,-1,58,60,-1,62,64,-1,-1,-1,66,68,70,-1,-1,-1,-1,-1,-1,-1,-1,-1,-1,-1,-1,-1,-1,-1,-1,-1,-1,-1,-1,-1,-1,-1],"split_conditions":[1.28E2,2.9E1,3E1,3.1E1,1E2,1.46E2,1.66E2,5E0,5.4E1,5.1E1,2.63E1,2.9E1,4.1E1,1.96E2,1.222E0,-1.3121952E-1,-4.6491314E-2,2.8125992E-2,4.99E-1,9.5E1,1.3664685E-2,2.21E1,1.99E-1,3E0,1.0326027E-2,7.5E1,5.4E1,3.06E-1,4.1E1,1.8417989E-1,4.386061E-2,8E0,6.5E1,4.3E1,9.8E1,1.1700403E-2,-1.11101106E-1,6E0,8.5E1,-1.0835481E-1,5E0,2.75E1,-8.1822E-2,1.4690837E-1,-3.1945318E-2,1.32E2,6E0,2.55E2,1.3809036E-1,-5.340581E-3,-1.2192817E-1,8.6332515E-2,-5.801787E-2,-1.2280625E-1,-3.6564272E-2,1.0598584E-2,-7.930824E-2,-9.154067E-2,3.6671616E-3,1.0580831E-1,-9.535316E-3,1.8405622E-2,-9.102359E-2,7.821928E-3,5.4123938E-2,-3.5377603E-2,8.4026776E-2,1.5821332E-1,7.1500994E-2,2.7680937E-3,-9.240556E-2],"split_indices":[1,7,5,5,1,1,1,0,2,7,5,3,7,4,6,0,0,0,6,1,0,5,6,0,0,2,7,6,7,0,0,3,2,7,1,0,0,0,2,0,0,5,0,0,0,1,0,4,0,0,0,0,0,0,0,0,0,0,0,0,0,0,0,0,0,0,0,0,0,0,0],"split_type":[0,0,0,0,0,0,0,0,0,0,0,0,0,0,0,0,0,0,0,0,0,0,0,0,0,0,0,0,0,0,0,0,0,0,0,0,0,0,0,0,0,0,0,0,0,0,0,0,0,0,0,0,0,0,0,0,0,0,0,0,0,0,0,0,0,0,0,0,0,0,0],"sum_hessian":[1.37504E2,8.4488754E1,5.3015244E1,4.6230335E1,3.825842E1,1.4048287E1,3.8966957E1,2.5577229E1,2.0653107E1,1.0919722E1,2.73387E1,7.610171E0,6.438116E0,2.5147766E1,1.3819191E1,2.408409E1,1.4931382E0,2.034207E0,1.86189E1,9.796018E0,1.1237037E0,4.690289E0,2.264841E1,6.4643073E0,1.1458638E0,3.6083887E0,2.8297274E0,1.9533556E1,5.614209E0,1.2614101E1,1.2050898E0,1.1490633E1,7.1282663E0,7.5405774E0,2.2554405E0,1.1367949E0,3.553494E0,3.4034162E0,1.9244993E1,3.1476834E0,3.3166237E0,2.3204336E0,1.287955E0,1.7157475E0,1.1139798E0,6.801791E0,1.2731766E1,4.1450305E0,1.4691787E0,1.3617536E0,1.012888E1,2.0969443E0,5.031322E0,6.269152E0,1.2714254E0,1.1417687E0,1.1136718E0,1.556884E0,1.8465321E0,1.5785921E1,3.4590728E0,1.6125597E0,1.7040641E0,1.1600256E0,1.160408E0,1.1380502E0,5.6637406E0,8.117371E0,4.614395E0,1.1768082E0,2.9682221E0],"tree_param":{"num_deleted":"0","num_feature":"8","num_nodes":"71","size_leaf_vector":"1"}},{"base_weights":[-2.0150699E-2,-5.3154737E-1,7.6538914E-1,-9.570737E-1,-2.3552462E-2,-2.1655655E-1,1.1075138E0,-1.228581E0,-5.878333E-1,-1.0240768E0,2.7182612E-1,-6.8995583E-1,3.489949E-1,6.949717E-1,1.4812053E0,-1.2617372E-1,-4.4541903E-2,3.1931017E-2,-7.556798E-1,-1.18898E-1,-2.6689202E-2,-8.5183394E-1,5.200102E-1,-8.278755E-1,9.75839E-3,-1.0954731E-1,8.0525994E-1,8.48177E-1,-8.866894E-2,1.5735668E0,-1.7166437E-4,-7.059132E-2,8.062409E-2,-1.8657105E-1,-1.0715262E0,1.1617707E-2,-1.1036966E-1,2.060928E-1,1.1311119E0,-1.0565875E-1,-4.3534037E-1,3.7913445E-1,-7.869133E-2,1.3622676E-1,-3.0442653E-2,3.8113317E-1,1.3865889E0,9.859485E-1,1.7618378E-1,-7.810456E-2,3.9090406E-2,-3.348763E-2,-1.21743165E-1,5.8447044E-2,-4.2712044E-2,5.1865704E-2,1.7183696E-1,3.0948136E-2,-9.338653E-2,5.8736634E-3,5.250714E-2,8.62114E-2,-5.4442877E-4,4.246684E-2,1.6354173E-1,1.2775646E-1,-1.8893598E-2],"categories":[],"categories_nodes":[],"categories_segments":[],"categories_sizes":[],"default_left":[0,0,0,0,0,0,0,0,0,0,0,0,0,0,0,0,0,0,0,0,0,0,0,0,0,0,0,0,0,0,0,0,0,0,0,0,0,0,0,0,0,0,0,0,0,0,0,0,0,0,0,0,0,0,0,0,0,0,0,0,0,0,0,0,0,0,0],"id":3,"left_children":[1,3,5,7,9,11,13,15,17,19,21,23,25,27,29,-1,-1,31,33,-1,-1,35,37,39,-1,41,43,45,-1,47,-1,-1,-1,49,51,-1,-1,53,55,-1,57,59,-1,-1,-1,61,63,65,-1,-1,-1,-1,-1,-1,-1,-1,-1,-1,-1,-1,-1,-1,-1,-1,-1,-1,-1],"loss_changes":[5.524101E1,1.7976503E1,1.8459093E1,3.8177109E0,1.1798254E1,4.2164664E0,5.1961784E0,9.180832E-2,2.219727E0,8.182373E-1,9.056112E0,9.952569E-1,1.6427517E0,5.859585E0,2.7838058E0,0E0,0E0,3.6870608E0,2.7927513E0,0E0,0E0,1.5829206E0,4.739026E0,1.927023E-1,0E0,1.8164334E0,2.7907834E0,4.4322166E0,0E0,3.7773514E-1,0E0,0E0,0E0,2.760882E0,7.204361E-1,0E0,0E0,4.6451535E0,2.1922235E0,0E0,1.914315E0,1.252827E-1,0E0,0E0,0E0,2.2253122E0,1.4080868E0,2.6085835E0,0E0,0E0,0E0,0E0,0E0,0E0,0E0,0E0,0E0,0E0,0E0,0E0,0E0,0E0,0E0,0E0,0E0,0E0,0E0],"parents":[2147483647,0,0,1,1,2,2,3,3,4,4,5,5,6,6,7,7,8,8,9,9,10,10,11,11,12,12,13,13,14,14,17,17,18,18,21,21,22,22,23,23,25,25,26,26,27,27,29,29,33,33,34,34,37,37,38,38,40,40,41,41,45,45,46,46,47,47],"right_children":[2,4,6,8,10,12,14,16,18,20,22,24,26,28,30,-1,-1,32,34,-1,-1,36,38,40,-1,42,44,46,-1,48,-1,-1,-1,50,52,-1,-1,54,56,-1,58,60,-1,-1,-1,62,64,66,-1,-1,-1,-1,-1,-1,-1,-1,-1,-1,-1,-1,-1,-1,-1,-1,-1,-1,-1],"split_conditions":[1.28E2,2.9E1,3E1,3.1E1,9.5E1,1.46E2,1.55E2,8.5E1,2.1E1,1E1,2.63E1,2.9E1,4.1E1,1.52E2,5.43E2,-1.2617372E-1,-4.4541903E-2,1.08E2,6.5E1,-1.18898E-1,-2.6689202E-2,2.1E1,5.14E-1,2.69E-1,9.75839E-3,7.5E1,5.4E1,3.2E1,-8.866894E-2,3.02E-1,-1.7166437E-4,-7.059132E-2,8.062409E-2,4.79E-1,1.4E1,1.1617707E-2,-1.1036966E-1,2.8E1,7E0,-1.0565875E-1,8.1E1,7.2E1,-7.869133E-2,1.3622676E-1,-3.0442653E-2,7.4E1,1.4E1,2.69E-1,1.7618378E-1,-7.810456E-2,3.9090406E-2,-3.348763E-2,-1.21743165E-1,5.8447044E-2,-4.2712044E-2,5.1865704E-2,1.7183696E-1,3.0948136E-2,-9.338653E-2,5.8736634E-3,5.250714E-2,8.62114E-2,-5.4442877E-4,4.246684E-2,1.6354173E-1,1.2775646E-1,-1.8893598E-2],"split_indices":[1,7,5,5,1,1,1,2,3,0,5,3,7,1,4,0,0,1,2,0,0,5,6,6,0,2,7,3,0,6,0,0,0,6,4,0,0,3,0,0,4,2,0,0,0,2,4,6,0,0,0,0,0,0,0,0,0,0,0,0,0,0,0,0,0,0,0],"split_type":[0,0,0,0,0,0,0,0,0,0,0,0,0,0,0,0,0,0,0,0,0,0,0,0,0,0,0,0,0,0,0,0,0,0,0,0,0,0,0,0,0,0,0,0,0,0,0,0,0,0,0,0,0,0,0,0,0,0,0,0,0,0,0,0,0,0,0],"sum_hessian":[1.3549763E2,8.226523E1,5.32324E1,4.428527E1,3.7979958E1,1.3849477E1,3.9382923E1,2.4178894E1,2.0106377E1,8.094563E0,2.9885397E1,7.4192038E0,6.430273E0,2.0077658E1,1.9305265E1,2.2610567E1,1.5683286E0,4.457404E0,1.5648972E1,6.1786785E0,1.9158841E0,4.966621E0,2.4918776E1,6.269948E0,1.1492559E0,3.5861397E0,2.8441334E0,1.8727398E1,1.3502598E0,1.8115826E1,1.189441E0,2.3276784E0,2.1297255E0,6.152954E0,9.496017E0,1.1366683E0,3.8299525E0,1.7345695E1,7.573079E0,2.892766E0,3.3771822E0,2.3389785E0,1.2471611E0,1.7420806E0,1.1020528E0,1.0942897E1,7.784501E0,5.909225E0,1.2206599E1,2.8581493E0,3.2948046E0,2.1146595E0,7.381358E0,1.0905859E1,6.4398375E0,4.628828E0,2.9442508E0,1.5061393E0,1.871043E0,1.170869E0,1.1681094E0,4.3279405E0,6.614956E0,2.1561053E0,5.628396E0,4.664149E0,1.2450765E0],"tree_param":{"num_deleted":"0","num_feature":"8","num_nodes":"67","size_leaf_vector":"1"}},{"base_weights":[-1.9457093E-2,-4.987009E-1,6.973991E-1,-9.107109E-1,-2.2621825E-2,-2.0356639E-1,1.0059934E0,-1.1814371E0,-5.534274E-1,-8.330556E-1,2.9823476E-1,-6.550641E-1,3.2644835E-1,6.314668E-1,1.3471836E0,-1.21372454E-1,-3.8671892E-2,3.004612E-2,-7.15328E-1,-9.567398E-1,1.5379499E-2,-7.58424E-1,5.213099E-1,-7.896133E-1,9.222283E-3,-1.0401542E-1,7.5275934E-1,7.7212036E-1,-8.5012965E-2,1.4312044E0,-1.6234729E-4,-6.704535E-2,7.423884E-2,-1.7562139E-1,-1.0244819E0,-1.0104859E0,-2.4194E-2,1.1703439E-2,-1.0218292E-1,-5.0057006E-1,7.12788E-1,-1.0063807E-1,-3.9993212E-1,3.5679904E-1,-7.5784564E-2,1.2717848E-1,-2.9016618E-2,3.4831512E-1,1.2584679E0,8.9962256E-1,1.6022803E-1,-7.427928E-2,3.5829607E-2,-3.1511962E-2,-1.1706721E-1,-1.0721941E-1,-3.455156E-2,-8.851052E-2,1.203653E-3,8.88065E-2,-1.1779502E-2,2.0016778E-2,-8.474324E-2,5.0451703E-2,4.520957E-3,-3.704219E-3,7.600593E-2,3.935575E-2,1.4802198E-1,1.1667861E-1,-1.7852608E-2],"categories":[],"categories_nodes":[],"categories_segments":[],"categories_sizes":[],"default_left":[0,0,0,0,0,0,0,0,0,0,0,0,0,0,0,0,0,0,0,0,0,0,0,0,0,0,0,0,0,0,0,0,0,0,0,0,0,0,0,0,0,0,0,0,0,0,0,0,0,0,0,0,0,0,0,0,0,0,0,0,0,0,0,0,0,0,0,0,0,0,0],"id":4,"left_children":[1,3,5,7,9,11,13,15,17,19,21,23,25,27,29,-1,-1,31,33,35,-1,37,39,41,-1,43,45,47,-1,49,-1,-1,-1,51,53,55,-1,-1,-1,57,59,-1,61,63,-1,-1,-1,65,67,69,-1,-1,-1,-1,-1,-1,-1,-1,-1,-1,-1,-1,-1,-1,-1,-1,-1,-1,-1,-1,-1],"loss_changes":[4.6398144E1,1.5851574E1,1.5253099E1,3.5395012E0,1.0276888E1,3.7172966E0,4.322521E0,1.4088058E-1,1.9646344E0,1.5144E0,7.0812483E0,9.011636E-1,1.4366524E0,5.0704317E0,2.3031578E0,0E0,0E0,3.2061079E0,2.5134735E0,1.432581E-1,0E0,1.3536804E0,5.0553007E0,1.9606829E-1,0E0,1.6448026E0,2.4478273E0,3.6569767E0,0E0,2.9671478E-1,0E0,0E0,0E0,2.4119182E0,6.739712E-1,1.8033981E-3,0E0,0E0,0E0,8.733978E-1,3.108817E0,0E0,1.2954364E0,1.3164449E-1,0E0,0E0,0E0,1.9321522E0,1.1185055E0,2.2055163E0,0E0,0E0,0E0,0E0,0E0,0E0,0E0,0E0,0E0,0E0,0E0,0E0,0E0,0E0,0E0,0E0,0E0,0E0,0E0,0E0,0E0],"parents":[2147483647,0,0,1,1,2,2,3,3,4,4,5,5,6,6,7,7,8,8,9,9,10,10,11,11,12,12,13,13,14,14,17,17,18,18,19,19,21,21,22,22,23,23,25,25,26,26,27,27,29,29,33,33,34,34,35,35,39,39,40,40,42,42,43,43,47,47,48,48,49,49],"right_children":[2,4,6,8,10,12,14,16,18,20,22,24,26,28,30,-1,-1,32,34,36,-1,38,40,42,-1,44,46,48,-1,50,-1,-1,-1,52,54,56,-1,-1,-1,58,60,-1,62,64,-1,-1,-1,66,68,70,-1,-1,-1,-1,-1,-1,-1,-1,-1,-1,-1,-1,-1,-1,-1,-1,-1,-1,-1,-1,-1],"split_conditions":[1.28E2,2.9E1,3E1,3.1E1,1E2,1.46E2,1.55E2,5E0,2.1E1,5.1E1,2.63E1,2.9E1,4.1E1,1.52E2,5.43E2,-1.21372454E-1,-3.8671892E-2,1.08E2,6.5E1,7.4E1,1.5379499E-2,2.21E1,1.99E-1,3E0,9.222283E-3,7.5E1,5.4E1,3.2E1,-8.5012965E-2,3.02E-1,-1.6234729E-4,-6.704535E-2,7.423884E-2,4.79E-1,1.4E1,4.3E1,-2.4194E-2,1.1703439E-2,-1.0218292E-1,6E0,8.5E1,-1.0063807E-1,5E0,3.64E-1,-7.5784564E-2,1.2717848E-1,-2.9016618E-2,4.35E-1,1.4E1,2.69E-1,1.6022803E-1,-7.427928E-2,3.5829607E-2,-3.1511962E-2,-1.1706721E-1,-1.0721941E-1,-3.455156E-2,-8.851052E-2,1.203653E-3,8.88065E-2,-1.1779502E-2,2.0016778E-2,-8.474324E-2,5.0451703E-2,4.520957E-3,-3.704219E-3,7.600593E-2,3.935575E-2,1.4802198E-1,1.1667861E-1,-1.7852608E-2],"split_indices":[1,7,5,5,1,1,1,0,3,7,5,3,7,1,4,0,0,1,2,4,0,5,6,0,0,2,7,3,0,6,0,0,0,6,4,7,0,0,0,0,2,0,0,6,0,0,0,6,4,6,0,0,0,0,0,0,0,0,0,0,0,0,0,0,0,0,0,0,0,0,0],"split_type":[0,0,0,0,0,0,0,0,0,0,0,0,0,0,0,0,0,0,0,0,0,0,0,0,0,0,0,0,0,0,0,0,0,0,0,0,0,0,0,0,0,0,0,0,0,0,0,0,0,0,0,0,0,0,0,0,0,0,0,0,0,0,0,0,0,0,0,0,0,0,0],"sum_hessian":[1.3304308E2,7.991882E1,5.312425E1,4.2352787E1,3.7566036E1,1.364039E1,3.948386E1,2.2782764E1,1.9570024E1,1.0201723E1,2.7364313E1,7.2383785E0,6.402012E0,2.0181398E1,1.9302462E1,2.138664E1,1.3961233E0,4.427646E0,1.5142378E1,9.092634E0,1.1090883E0,4.3516464E0,2.3012667E1,6.0859594E0,1.1524189E0,3.5616636E0,2.840348E0,1.8868956E1,1.3124415E0,1.8113062E1,1.1894011E0,2.262028E0,2.1656182E0,6.0859237E0,9.056455E0,8.072033E0,1.0206017E0,1.1350061E0,3.2166405E0,3.3768508E0,1.9635817E1,2.8937073E0,3.1922522E0,2.3556876E0,1.205976E0,1.749999E0,1.090349E0,1.0999839E1,7.8691177E0,5.9337645E0,1.21792965E1,2.7613628E0,3.324561E0,2.086692E0,6.9697623E0,6.82618E0,1.2458527E0,1.5142505E0,1.8626003E0,1.6157011E1,3.4788048E0,1.5997193E0,1.592533E0,1.1780341E0,1.1776536E0,6.152066E0,4.847772E0,2.1720655E0,5.6970525E0,4.6895013E0,1.2442634E0],"tree_param":{"num_deleted":"0","num_feature":"8","num_nodes":"71","size_leaf_vector":"1"}},{"base_weights":[-2.0851204E-2,-4.717287E-1,6.390975E-1,-8.6866003E-1,-2.8138215E-2,-1.924752E-1,9.204679E-1,-1.1396967E0,-5.2212536E-1,-9.4362074E-1,2.2441232E-1,-6.241353E-1,3.0587232E-1,6.4886665E-1,1.3483174E0,-1.17523886E-1,-3.7126422E-2,3.859744E-2,-6.079084E-1,-1.1135459E-1,-2.2007985E-2,-7.7302617E-1,4.2998978E-1,-7.560146E-1,8.715942E-3,-4.4721793E-2,5.2006316E-1,8.610229E-1,-1.253183E-1,1.4289348E-1,2.5935173E-2,-9.1265994E-1,-9.558396E-2,1.1572362E-2,-1.02463715E-1,1.5374066E-1,9.668491E-1,-9.8613754E-2,-3.7818155E-1,7.684211E-1,-3.4562178E-2,4.5922706E-1,1.0271603E0,-7.2407734E-1,1.1554314E-1,1.593581E-2,-1.0989072E-1,9.146721E-2,-4.8789557E-2,3.627945E-2,-8.879264E-2,3.457154E-3,1.2404684E-1,3.165672E-2,-8.727798E-2,1.1008485E-1,7.3226476E-3,-3.677364E-2,6.529333E-2,1.2292995E-1,5.1115125E-2,-2.2230418E-3,-9.310132E-2],"categories":[],"categories_nodes":[],"categories_segments":[],"categories_sizes":[],"default_left":[0,0,0,0,0,0,0,0,0,0,0,0,0,0,0,0,0,0,0,0,0,0,0,0,0,0,0,0,0,0,0,0,0,0,0,0,0,0,0,0,0,0,0,0,0,0,0,0,0,0,0,0,0,0,0,0,0,0,0,0,0,0,0],"id":5,"left_children":[1,3,5,7,9,11,13,15,17,19,21,23,25,27,29,-1,-1,-1,31,-1,-1,33,35,37,-1,-1,39,41,43,-1,-1,45,47,-1,-1,49,51,-1,53,55,-1,57,59,61,-1,-1,-1,-1,-1,-1,-1,-1,-1,-1,-1,-1,-1,-1,-1,-1,-1,-1,-1],"loss_changes":[3.936159E1,1.3808624E1,1.2743353E1,3.2960873E0,9.028697E0,3.2896378E0,3.808323E0,1.7549133E-1,1.7947755E0,7.923088E-1,6.626855E0,8.20817E-1,1.4193172E0,4.4735804E0,9.2180634E-1,0E0,0E0,0E0,2.8304443E0,0E0,0E0,1.3715353E0,3.7212725E0,2.2634363E-1,0E0,0E0,1.5964984E0,9.2942905E-1,5.8903065E0,0E0,0E0,2.4912539E0,3.6514037E0,0E0,0E0,4.3328705E0,2.1703205E0,0E0,1.7301455E0,1.1027503E0,0E0,1.5133924E0,8.36195E-1,7.2080207E-1,0E0,0E0,0E0,0E0,0E0,0E0,0E0,0E0,0E0,0E0,0E0,0E0,0E0,0E0,0E0,0E0,0E0,0E0,0E0],"parents":[2147483647,0,0,1,1,2,2,3,3,4,4,5,5,6,6,7,7,8,8,9,9,10,10,11,11,12,12,13,13,14,14,18,18,21,21,22,22,23,23,26,26,27,27,28,28,31,31,32,32,35,35,36,36,38,38,39,39,41,41,42,42,43,43],"right_children":[2,4,6,8,10,12,14,16,18,20,22,24,26,28,30,-1,-1,-1,32,-1,-1,34,36,38,-1,-1,40,42,44,-1,-1,46,48,-1,-1,50,52,-1,54,56,-1,58,60,62,-1,-1,-1,-1,-1,-1,-1,-1,-1,-1,-1,-1,-1,-1,-1,-1,-1,-1,-1],"split_conditions":[1.28E2,2.9E1,3E1,3.1E1,9.5E1,1.46E2,1.66E2,8.5E1,5.2E1,1E1,2.63E1,2.9E1,2E0,1.96E2,1.222E0,-1.17523886E-1,-3.7126422E-2,3.859744E-2,4.99E-1,-1.1135459E-1,-2.2007985E-2,2.1E1,5.14E-1,2.69E-1,8.715942E-3,-4.4721793E-2,2.4E1,3.06E-1,4.1E1,1.4289348E-1,2.5935173E-2,8E0,5.47E-1,1.1572362E-2,-1.02463715E-1,4.16E-1,7E1,-9.8613754E-2,8.1E1,7.5E1,-3.4562178E-2,1.32E2,6E0,7.4E1,1.1554314E-1,1.593581E-2,-1.0989072E-1,9.146721E-2,-4.8789557E-2,3.627945E-2,-8.879264E-2,3.457154E-3,1.2404684E-1,3.165672E-2,-8.727798E-2,1.1008485E-1,7.3226476E-3,-3.677364E-2,6.529333E-2,1.2292995E-1,5.1115125E-2,-2.2230418E-3,-9.310132E-2],"split_indices":[1,7,5,5,1,1,1,2,2,0,5,3,0,4,6,0,0,0,6,0,0,5,6,6,0,0,3,6,7,0,0,3,6,0,0,6,2,0,4,2,0,1,0,2,0,0,0,0,0,0,0,0,0,0,0,0,0,0,0,0,0,0,0],"split_type":[0,0,0,0,0,0,0,0,0,0,0,0,0,0,0,0,0,0,0,0,0,0,0,0,0,0,0,0,0,0,0,0,0,0,0,0,0,0,0,0,0,0,0,0,0,0,0,0,0,0,0,0,0,0,0,0,0,0,0,0,0,0,0],"sum_hessian":[1.3026976E2,7.756351E1,5.270625E1,4.042889E1,3.7134617E1,1.3404884E1,3.9301365E1,2.1401335E1,1.9027557E1,7.437544E0,2.9697073E1,7.0477943E0,6.35709E0,2.5579763E1,1.37216015E1,1.9949232E1,1.4521025E0,1.3402493E0,1.7687307E1,5.5865164E0,1.8510277E0,4.603098E0,2.5093975E1,5.892425E0,1.1553695E0,1.166779E0,5.190311E0,1.9989666E1,5.5900974E0,1.2485119E1,1.2364826E0,1.0600367E1,7.0869412E0,1.134796E0,3.468302E0,1.7417768E1,7.676207E0,2.6614566E0,3.2309685E0,4.1205215E0,1.0697894E0,6.9486966E0,1.3040969E1,4.105428E0,1.4846693E0,1.5904269E0,9.00994E0,1.6098539E0,5.4770875E0,1.5049231E1,2.368537E0,1.9973094E0,5.678898E0,1.4933088E0,1.7376596E0,2.3928163E0,1.7277051E0,1.1482414E0,5.800455E0,8.377053E0,4.663916E0,1.1870016E0,2.9184265E0],"tree_param":{"num_deleted":"0","num_feature":"8","num_nodes":"63","size_leaf_vector":"1"}},{"base_weights":[-2.053425E-2,-6.7728454E-1,3.7797886E-1,-8.877515E-1,2.3120454E-1,9.869886E-2,1.0357729E0,-9.4056386E-1,4.693787E-2,-6.095E-1,7.857261E-1,-7.527505E-1,2.5084436E-1,1.5187314E-1,1.1874352E0,-1.0256144E0,-6.113617E-2,-9.45556E-2,2.1203408E-2,-4.14514E-2,1.4197046E-1,2.0240547E-2,-9.058313E-1,-1.5630661E-1,6.225415E-1,5.3138727E-1,-4.5264833E-2,1.2629764E0,-1.7827343E-3,-1.11818306E-1,-4.3736762E-1,-6.1093844E-2,6.026717E-2,-1.0715957E-1,-3.406326E-1,1.2645306E-1,-3.02786E-1,7.068837E-1,-3.383922E-2,-4.019989E-2,1.186262E-1,8.0563325E-1,1.415783E-1,2.121556E-2,-8.244567E-2,2.5484875E-2,-7.2396904E-2,-4.520895E-2,3.827658E-2,7.790865E-2,-4.102196E-2,1.06522836E-1,-2.3234382E-2],"categories":[],"categories_nodes":[],"categories_segments":[],"categories_sizes":[],"default_left":[0,0,0,0,0,0,0,0,0,0,0,0,0,0,0,0,0,0,0,0,0,0,0,0,0,0,0,0,0,0,0,0,0,0,0,0,0,0,0,0,0,0,0,0,0,0,0,0,0,0,0,0,0],"id":6,"left_children":[1,3,5,7,9,11,13,15,-1,17,19,21,23,25,27,29,31,-1,-1,-1,-1,-1,33,35,37,39,-1,41,-1,-1,43,-1,-1,-1,45,-1,47,49,-1,-1,-1,51,-1,-1,-1,-1,-1,-1,-1,-1,-1,-1,-1],"loss_changes":[3.387162E1,9.548092E0,1.4700458E1,3.299696E0,5.1333404E0,7.6593256E0,3.024809E0,2.8332062E0,0E0,1.4514769E0,5.4985933E0,1.4981751E0,7.6149964E0,1.3069601E0,1.8672218E0,1.4298744E0,2.0023615E0,0E0,0E0,0E0,0E0,0E0,3.7821102E-1,5.483212E0,2.3601255E0,2.5035179E0,0E0,1.9280434E-1,0E0,0E0,1.7925469E0,0E0,0E0,0E0,9.298012E-1,0E0,2.529546E0,2.2861261E0,0E0,0E0,0E0,2.1602979E0,0E0,0E0,0E0,0E0,0E0,0E0,0E0,0E0,0E0,0E0,0E0],"parents":[2147483647,0,0,1,1,2,2,3,3,4,4,5,5,6,6,7,7,9,9,10,10,11,11,12,12,13,13,14,14,15,15,16,16,22,22,23,23,24,24,25,25,27,27,30,30,34,34,36,36,37,37,41,41],"right_children":[2,4,6,8,10,12,14,16,-1,18,20,22,24,26,28,30,32,-1,-1,-1,-1,-1,34,36,38,40,-1,42,-1,-1,44,-1,-1,-1,46,-1,48,50,-1,-1,-1,52,-1,-1,-1,-1,-1,-1,-1,-1,-1,-1,-1],"split_conditions":[1.12E2,7E0,1.55E2,4.7E1,9.5E1,2.64E1,2.86E1,4.1E1,4.693787E-2,2.7E1,2.52E-1,2.04E1,3.1E1,2.6E1,5.43E2,6.74E-1,2E0,-9.45556E-2,2.1203408E-2,-4.14514E-2,1.4197046E-1,2.0240547E-2,1.32E2,2.4E1,5.9E1,6E0,-4.5264833E-2,3.02E-1,-1.7827343E-3,-1.11818306E-1,7.61E-1,-6.1093844E-2,6.026717E-2,-1.0715957E-1,8E0,1.2645306E-1,4.2E1,1.5E2,-3.383922E-2,-4.019989E-2,1.186262E-1,2.69E-1,1.415783E-1,2.121556E-2,-8.244567E-2,2.5484875E-2,-7.2396904E-2,-4.520895E-2,3.827658E-2,7.790865E-2,-4.102196E-2,1.06522836E-1,-2.3234382E-2],"split_indices":[1,0,1,7,1,5,5,3,0,3,6,5,7,5,4,6,0,0,0,0,0,0,1,2,7,0,0,6,0,0,6,0,0,0,3,0,5,1,0,0,0,6,0,0,0,0,0,0,0,0,0,0,0],"split_type":[0,0,0,0,0,0,0,0,0,0,0,0,0,0,0,0,0,0,0,0,0,0,0,0,0,0,0,0,0,0,0,0,0,0,0,0,0,0,0,0,0,0,0,0,0,0,0,0,0,0,0,0,0],"sum_hessian":[1.2743939E2,4.7862453E1,7.9576935E1,3.887843E1,8.984025E0,5.666759E1,2.2909346E1,3.7717606E1,1.1608225E0,3.5312247E0,5.4528003E0,7.992383E0,4.867521E1,3.6482787E0,1.9261066E1,3.4239986E1,3.4776216E0,2.3989491E0,1.1322758E0,2.0043535E0,3.4484468E0,1.0594807E0,6.9329023E0,2.3506283E1,2.5168924E1,2.3155637E0,1.3327152E0,1.8079998E1,1.1810694E0,2.8806082E1,5.4339037E0,1.9457171E0,1.5319045E0,4.667911E0,2.2649913E0,1.4835132E0,2.202277E1,2.3381113E1,1.78781E0,1.1139731E0,1.2015905E0,6.0988007E0,1.1981197E1,2.1978693E0,3.2360342E0,1.0183115E0,1.2466798E0,1.8363916E1,3.6588545E0,2.2245861E1,1.1352522E0,4.85766E0,1.2411411E0],"tree_param":{"num_deleted":"0","num_feature":"8","num_nodes":"53","size_leaf_vector":"1"}},{"base_weights":[-1.861891E-2,-6.3892937E-1,3.4706602E-1,-8.42762E-1,2.1269976E-1,8.8839814E-2,9.6183974E-1,-8.9549583E-1,4.4201113E-2,-4.99616E-1,8.0631554E-1,-7.1840864E-1,2.28689E-1,1.4454386E-1,1.1036065E0,-9.804208E-1,-5.6032337E-2,4.8674423E-2,-8.8642225E-2,1.231041E0,-2.4396611E-2,1.9126767E-2,-8.7082744E-1,-1.374229E-1,5.583636E-1,5.0329655E-1,-4.304595E-2,1.1753842E0,-1.6864997E-3,-1.073545E-1,-4.110601E-1,-7.545825E-2,4.4855246E-1,2.6616484E-2,1.4734638E-1,-1.0356265E-1,-3.2534006E-1,5.0822574E-1,-4.4785833E-1,1.5393797E-1,8.0069995E-1,-3.8297042E-2,1.12075105E-1,7.4265516E-1,1.3238646E-1,1.9649412E-2,-7.86351E-2,9.06144E-2,-2.665766E-2,-7.11105E-2,2.632668E-2,1.1520343E-1,1.41833825E-2,-7.610835E-2,-1.0771945E-2,7.372096E-2,-4.6813693E-2,9.1557324E-2,-3.9059397E-2,9.861805E-2,-2.1946635E-2],"categories":[],"categories_nodes":[],"categories_segments":[],"categories_sizes":[],"default_left":[0,0,0,0,0,0,0,0,0,0,0,0,0,0,0,0,0,0,0,0,0,0,0,0,0,0,0,0,0,0,0,0,0,0,0,0,0,0,0,0,0,0,0,0,0,0,0,0,0,0,0,0,0,0,0,0,0,0,0,0,0],"id":7,"left_children":[1,3,5,7,9,11,13,15,-1,17,19,21,23,25,27,29,31,-1,-1,33,-1,-1,35,37,39,41,-1,43,-1,-1,45,-1,47,-1,-1,-1,49,51,53,55,57,-1,-1,59,-1,-1,-1,-1,-1,-1,-1,-1,-1,-1,-1,-1,-1,-1,-1,-1,-1],"loss_changes":[2.8716818E1,8.327776E0,1.2563366E1,2.9756012E0,4.5736966E0,6.623029E0,2.559391E0,2.5761852E0,0E0,2.3776746E0,2.8709993E0,1.3713484E0,6.0539055E0,1.1695627E0,1.6159878E0,1.3325539E0,1.9074469E0,0E0,0E0,6.0632086E-1,0E0,0E0,3.482914E-1,5.0914435E0,2.4499283E0,2.238149E0,0E0,2.1614647E-1,0E0,0E0,1.5962701E0,0E0,1.2925208E0,0E0,0E0,0E0,9.198489E-1,1.805711E0,1.7205682E0,4.3637652E0,2.5717497E0,0E0,0E0,1.8673964E0,0E0,0E0,0E0,0E0,0E0,0E0,0E0,0E0,0E0,0E0,0E0,0E0,0E0,0E0,0E0,0E0,0E0],"parents":[2147483647,0,0,1,1,2,2,3,3,4,4,5,5,6,6,7,7,9,9,10,10,11,11,12,12,13,13,14,14,15,15,16,16,19,19,22,22,23,23,24,24,25,25,27,27,30,30,32,32,36,36,37,37,38,38,39,39,40,40,43,43],"right_children":[2,4,6,8,10,12,14,16,-1,18,20,22,24,26,28,30,32,-1,-1,34,-1,-1,36,38,40,42,-1,44,-1,-1,46,-1,48,-1,-1,-1,50,52,54,56,58,-1,-1,60,-1,-1,-1,-1,-1,-1,-1,-1,-1,-1,-1,-1,-1,-1,-1,-1,-1],"split_conditions":[1.12E2,7E0,1.55E2,4.7E1,2.4E1,2.64E1,2.86E1,4.1E1,4.4201113E-2,3.4E1,4E1,2.04E1,3.1E1,2.6E1,5.43E2,6.74E-1,4.26E-1,4.8674423E-2,-8.8642225E-2,9.5E1,-2.4396611E-2,1.9126767E-2,1.32E2,1.3E1,1.6E1,6E0,-4.304595E-2,3.02E-1,-1.6864997E-3,-1.073545E-1,7.61E-1,-7.545825E-2,4.08E1,2.6616484E-2,1.4734638E-1,-1.0356265E-1,2.58E-1,5.4E1,1.28E2,7.8E1,1.5E2,-3.8297042E-2,1.12075105E-1,2.69E-1,1.3238646E-1,1.9649412E-2,-7.86351E-2,9.06144E-2,-2.665766E-2,-7.11105E-2,2.632668E-2,1.1520343E-1,1.41833825E-2,-7.610835E-2,-1.0771945E-2,7.372096E-2,-4.6813693E-2,9.1557324E-2,-3.9059397E-2,9.861805E-2,-2.1946635E-2],"split_indices":[1,0,1,7,3,5,5,3,0,7,3,5,7,5,4,6,6,0,0,1,0,0,1,3,3,0,0,6,0,0,6,0,5,0,0,0,6,2,1,2,1,0,0,6,0,0,0,0,0,0,0,0,0,0,0,0,0,0,0,0,0],"split_type":[0,0,0,0,0,0,0,0,0,0,0,0,0,0,0,0,0,0,0,0,0,0,0,0,0,0,0,0,0,0,0,0,0,0,0,0,0,0,0,0,0,0,0,0,0,0,0,0,0,0,0,0,0,0,0,0,0,0,0,0,0],"sum_hessian":[1.2461847E2,4.594124E1,7.867723E1,3.707739E1,8.86385E0,5.621112E1,2.2466106E1,3.5906586E1,1.1708031E0,4.1010733E0,4.7627764E0,7.689302E0,4.852182E1,3.6194272E0,1.8846678E1,3.2455307E1,3.4512794E0,1.0824491E0,3.0186243E0,3.2687962E0,1.4939802E0,1.0668961E0,6.622406E0,2.326671E1,2.525511E1,2.305623E0,1.313804E0,1.7665981E1,1.1806965E0,2.7132078E1,5.32323E0,1.2396494E0,2.2116299E0,1.0776274E0,2.1911688E0,4.3958316E0,2.2265747E0,7.3477025E0,1.5919008E1,1.0075584E1,1.5179524E1,1.1026652E0,1.202958E0,6.046335E0,1.1619647E1,2.2145467E0,3.108683E0,1.1857775E0,1.0258523E0,1.2193282E0,1.0072465E0,1.8872454E0,5.460457E0,7.643104E0,8.275904E0,5.1044517E0,4.9711328E0,1.4055624E1,1.1239E0,4.805097E0,1.2412382E0],"tree_param":{"num_deleted":"0","num_feature":"8","num_nodes":"61","size_leaf_vector":"1"}},{"base_weights":[-1.6280523E-2,-6.011439E-1,3.1973365E-1,-8.0130404E-1,2.0372093E-1,8.013687E-2,8.9727265E-1,-8.540095E-1,4.1646745E-2,-5.6388086E-1,6.970364E-1,-6.8635666E-1,2.0923997E-1,1.3772887E-1,1.0307951E0,-9.383382E-1,-5.408658E-2,-8.9445256E-2,1.9830307E-2,-5.344066E-2,1.1810148E-1,1.807606E-2,-8.381948E-1,-1.2377325E-1,5.0585854E-1,4.7774607E-1,-4.0951706E-2,1.0996559E0,-1.595459E-3,-1.03226E0,-3.866495E-1,-5.815645E-2,5.6528687E-2,-1.002545E-1,-3.1084415E-1,4.7149777E-1,-4.160863E-1,1.1059464E0,3.3628222E-1,-3.6495503E-2,1.0623752E-1,6.8659544E-1,1.2457313E-1,-1.10012285E-1,-5.980849E-2,-9.220434E-2,4.953687E-3,2.5577739E-2,-6.9116056E-2,1.1212241E-1,1.4184079E-2,-5.1076617E-2,4.5969397E-2,1.3901706E-1,7.7906786E-3,-8.2087265E-3,6.581247E-2,9.161923E-2,-2.073321E-2],"categories":[],"categories_nodes":[],"categories_segments":[],"categories_sizes":[],"default_left":[0,0,0,0,0,0,0,0,0,0,0,0,0,0,0,0,0,0,0,0,0,0,0,0,0,0,0,0,0,0,0,0,0,0,0,0,0,0,0,0,0,0,0,0,0,0,0,0,0,0,0,0,0,0,0,0,0,0,0],"id":8,"left_children":[1,3,5,7,9,11,13,15,-1,17,19,21,23,25,27,29,31,-1,-1,-1,-1,-1,33,35,37,39,-1,41,-1,43,45,-1,-1,-1,47,49,51,53,55,-1,-1,57,-1,-1,-1,-1,-1,-1,-1,-1,-1,-1,-1,-1,-1,-1,-1,-1,-1],"loss_changes":[2.4300055E1,7.430296E0,1.079948E1,2.6872768E0,4.0968413E0,5.7471128E0,2.1843166E0,2.320219E0,0E0,1.2808158E0,4.4464235E0,1.2569973E0,4.925384E0,1.0485464E0,1.4126091E0,1.2452412E0,1.770553E0,0E0,0E0,0E0,0E0,0E0,3.2301855E-1,4.3714967E0,2.297686E0,2.0079446E0,0E0,2.4126816E-1,0E0,1.2341118E-1,1.4972169E0,0E0,0E0,0E0,8.640567E-1,1.6339844E0,1.6132376E0,1.4529166E0,3.0016208E0,0E0,0E0,1.6217222E0,0E0,0E0,0E0,0E0,0E0,0E0,0E0,0E0,0E0,0E0,0E0,0E0,0E0,0E0,0E0,0E0,0E0],"parents":[2147483647,0,0,1,1,2,2,3,3,4,4,5,5,6,6,7,7,9,9,10,10,11,11,12,12,13,13,14,14,15,15,16,16,22,22,23,23,24,24,25,25,27,27,29,29,30,30,34,34,35,35,36,36,37,37,38,38,41,41],"right_children":[2,4,6,8,10,12,14,16,-1,18,20,22,24,26,28,30,32,-1,-1,-1,-1,-1,34,36,38,40,-1,42,-1,44,46,-1,-1,-1,48,50,52,54,56,-1,-1,58,-1,-1,-1,-1,-1,-1,-1,-1,-1,-1,-1,-1,-1,-1,-1,-1,-1],"split_conditions":[1.12E2,7E0,1.55E2,4.7E1,9.5E1,2.64E1,2.86E1,4.1E1,4.1646745E-2,2.7E1,2.38E-1,2.04E1,3.1E1,2.6E1,5.43E2,6.74E-1,9.4E1,-8.9445256E-2,1.9830307E-2,-5.344066E-2,1.1810148E-1,1.807606E-2,1.32E2,1.3E1,2E0,6E0,-4.0951706E-2,3.02E-1,-1.595459E-3,3.1E1,1.8E1,-5.815645E-2,5.6528687E-2,-1.002545E-1,8E0,2.4E1,4.53E1,7.48E-1,4.1E1,-3.6495503E-2,1.0623752E-1,2.69E-1,1.2457313E-1,-1.10012285E-1,-5.980849E-2,-9.220434E-2,4.953687E-3,2.5577739E-2,-6.9116056E-2,1.1212241E-1,1.4184079E-2,-5.1076617E-2,4.5969397E-2,1.3901706E-1,7.7906786E-3,-8.2087265E-3,6.581247E-2,9.161923E-2,-2.073321E-2],"split_indices":[1,0,1,7,1,5,5,3,0,3,6,5,7,5,4,6,4,0,0,0,0,0,1,3,0,0,0,6,0,7,4,0,0,0,3,7,5,6,7,0,0,6,0,0,0,0,0,0,0,0,0,0,0,0,0,0,0,0,0],"split_type":[0,0,0,0,0,0,0,0,0,0,0,0,0,0,0,0,0,0,0,0,0,0,0,0,0,0,0,0,0,0,0,0,0,0,0,0,0,0,0,0,0,0,0,0,0,0,0,0,0,0,0,0,0,0,0,0,0,0,0],"sum_hessian":[1.2167228E2,4.4108448E1,7.756383E1,3.532738E1,8.781068E0,5.5625774E1,2.1938053E1,3.414815E1,1.1792303E0,3.3795013E0,5.401567E0,7.3964176E0,4.8229355E1,3.5836911E0,1.8354362E1,3.0734999E1,3.413151E0,2.2361202E0,1.143381E0,1.4945679E0,3.906999E0,1.0737818E0,6.3226357E0,2.2995295E1,2.5234062E1,2.2886786E0,1.2950122E0,1.7174019E1,1.1803422E0,2.5519386E1,5.2156134E0,1.8762885E0,1.5368625E0,4.1333647E0,2.1892712E0,7.37129E0,1.5624003E1,4.3431015E0,2.089096E1,1.0913398E0,1.1973388E0,5.9759593E0,1.1198061E1,2.0743319E1,4.7760677E0,1.841456E0,3.3741572E0,1.0107894E0,1.1784819E0,1.6729206E0,5.6983695E0,1.4475822E1,1.1481817E0,3.1264672E0,1.2166344E0,9.407243E0,1.1483719E1,4.7349305E0,1.2410287E0],"tree_param":{"num_deleted":"0","num_feature":"8","num_nodes":"59","size_leaf_vector":"1"}},{"base_weights":[-1.4014621E-2,-5.7017654E-1,2.9735014E-1,-7.633171E-1,1.8521799E-1,7.590643E-2,8.40002E-1,-8.1591815E-1,3.9259203E-2,-4.7157457E-1,7.170926E-1,-6.563969E-1,1.9561924E-1,1.3141279E-1,9.664498E-1,-9.002882E-1,-4.9799237E-2,4.376194E-2,-8.370997E-2,1.111423E0,-2.4878297E-2,1.7084619E-2,-8.077002E-1,-1.07741944E-1,4.6283692E-1,4.5441663E-1,-3.8972523E-2,1.0329946E0,-1.509336E-3,-9.9552715E-1,-3.6657608E-1,-7.190214E-2,4.2071965E-1,2.6755918E-2,1.3119976E-1,-9.718462E-2,-2.9734516E-1,1.105114E-1,-2.3765472E-1,1.1699696E-1,3.3178982E-1,-3.4788292E-2,1.0099762E-1,6.361978E-1,1.1779865E0,-1.0662267E-1,-5.6324538E-2,1.9890286E-2,-7.349979E-2,8.4480815E-2,-2.5302252E-2,-6.798987E-2,2.6302835E-2,-3.75302E-2,3.6572676E-2,9.911579E-2,1.4185493E-2,1.2094158E-2,1.15066014E-1,1.3097323E-1,5.952514E-2],"categories":[],"categories_nodes":[],"categories_segments":[],"categories_sizes":[],"default_left":[0,0,0,0,0,0,0,0,0,0,0,0,0,0,0,0,0,0,0,0,0,0,0,0,0,0,0,0,0,0,0,0,0,0,0,0,0,0,0,0,0,0,0,0,0,0,0,0,0,0,0,0,0,0,0,0,0,0,0,0,0],"id":9,"left_children":[1,3,5,7,9,11,13,15,-1,17,19,21,23,25,27,29,31,-1,-1,33,-1,-1,35,37,39,41,-1,43,-1,45,47,-1,49,-1,-1,-1,51,-1,53,-1,55,-1,-1,57,59,-1,-1,-1,-1,-1,-1,-1,-1,-1,-1,-1,-1,-1,-1,-1,-1],"loss_changes":[2.0919983E1,6.466049E0,9.246447E0,2.4312801E0,3.7028115E0,5.048477E0,1.8759489E0,2.1226025E0,0E0,1.9990896E0,2.4545956E0,1.1537232E0,4.022602E0,9.417287E-1,1.2443295E0,1.16745E0,1.6832653E0,0E0,0E0,3.6724138E-1,0E0,0E0,3.0036545E-1,4.0068364E0,2.043869E0,1.8070965E0,0E0,2.649784E-1,0E0,1.6348648E-1,1.4270093E0,0E0,1.129683E0,0E0,0E0,0E0,8.547212E-1,0E0,1.9882604E0,0E0,2.8071554E0,0E0,0E0,1.6880028E0,1.2162781E-1,0E0,0E0,0E0,0E0,0E0,0E0,0E0,0E0,0E0,0E0,0E0,0E0,0E0,0E0,0E0,0E0],"parents":[2147483647,0,0,1,1,2,2,3,3,4,4,5,5,6,6,7,7,9,9,10,10,11,11,12,12,13,13,14,14,15,15,16,16,19,19,22,22,23,23,24,24,25,25,27,27,29,29,30,30,32,32,36,36,38,38,40,40,43,43,44,44],"right_children":[2,4,6,8,10,12,14,16,-1,18,20,22,24,26,28,30,32,-1,-1,34,-1,-1,36,38,40,42,-1,44,-1,46,48,-1,50,-1,-1,-1,52,-1,54,-1,56,-1,-1,58,60,-1,-1,-1,-1,-1,-1,-1,-1,-1,-1,-1,-1,-1,-1,-1,-1],"split_conditions":[1.12E2,7E0,1.55E2,4.7E1,2.4E1,2.64E1,2.86E1,4.1E1,3.9259203E-2,3.4E1,4E1,2.04E1,3.1E1,2.6E1,5.43E2,6.74E-1,4.26E-1,4.376194E-2,-8.370997E-2,9.5E1,-2.4878297E-2,1.7084619E-2,1.32E2,2.4E1,1.17E2,6E0,-3.8972523E-2,3.02E-1,-1.509336E-3,3.1E1,7.61E-1,-7.190214E-2,4.08E1,2.6755918E-2,1.3119976E-1,-9.718462E-2,2.58E-1,1.105114E-1,4.2E1,1.1699696E-1,2E0,-3.4788292E-2,1.0099762E-1,3.8E1,4.4E1,-1.0662267E-1,-5.6324538E-2,1.9890286E-2,-7.349979E-2,8.4480815E-2,-2.5302252E-2,-6.798987E-2,2.6302835E-2,-3.75302E-2,3.6572676E-2,9.911579E-2,1.4185493E-2,1.2094158E-2,1.15066014E-1,1.3097323E-1,5.952514E-2],"split_indices":[1,0,1,7,3,5,5,3,0,7,3,5,7,5,4,6,6,0,0,1,0,0,1,2,1,0,0,6,0,7,6,0,5,0,0,0,6,0,5,0,0,0,0,7,7,0,0,0,0,0,0,0,0,0,0,0,0,0,0,0,0],"split_type":[0,0,0,0,0,0,0,0,0,0,0,0,0,0,0,0,0,0,0,0,0,0,0,0,0,0,0,0,0,0,0,0,0,0,0,0,0,0,0,0,0,0,0,0,0,0,0,0,0,0,0,0,0,0,0,0,0,0,0,0,0],"sum_hessian":[1.1882752E2,4.235016E1,7.647736E1,3.3718475E1,8.631685E0,5.5122875E1,2.1354494E1,3.253219E1,1.1862838E0,3.9130166E0,4.718669E0,7.115158E0,4.8007717E1,3.5424647E0,1.7812029E1,2.914718E1,3.3850093E0,1.0654987E0,2.8475177E0,3.2436996E0,1.4749694E0,1.0801775E0,6.034981E0,2.2762823E1,2.5244892E1,2.2660105E0,1.2764541E0,1.6632023E1,1.1800058E0,2.3999306E1,5.147875E0,1.179398E0,2.2056112E0,1.0711378E0,2.172562E0,3.882117E0,2.1528637E0,1.4760399E0,2.1286783E1,2.707471E0,2.253742E1,1.0800683E0,1.1859423E0,5.8928847E0,1.0739138E1,1.9365564E1,4.633741E0,2.2123423E0,2.9355323E0,1.1977688E0,1.0078424E0,1.1526687E0,1.0001949E0,1.7640518E1,3.6462662E0,4.096795E0,1.8440626E1,3.5612366E0,2.3316483E0,7.7413907E0,2.9977472E0],"tree_param":{"num_deleted":"0","num_feature":"8","num_nodes":"61","size_leaf_vector":"1"}},{"base_weights":[-9.521104E-3,-5.38323E-1,2.7903736E-1,-7.2785836E-1,1.7820668E-1,7.262643E-2,7.928916E-1,-7.8042203E-1,3.7024684E-2,-6.841814E-1,5.3920436E-1,-3.22112E-1,2.7995756E-1,1.2557457E-1,9.136193E-1,-8.642301E-1,-4.8701584E-2,-1.881219E-2,-8.226475E-2,-2.9774445E-1,1.1637863E-1,-4.861008E-1,4.0061042E-1,-5.6898575E-2,5.9343797E-1,4.3303832E-1,-3.709994E-2,9.7843146E-1,-1.4278598E-3,-9.608482E-1,-3.4497315E-1,-5.5307753E-2,5.3495646E-2,-8.178838E-2,4.6454124E-2,-1.4133583E-1,-8.70517E-1,-2.7363924E-2,9.867238E-2,4.8485827E-1,-2.8069425E-1,2.4898194E-1,8.2248473E-1,-3.3169143E-2,9.626242E-2,5.686843E-1,1.1213422E0,-1.0346464E-1,-5.3031005E-2,-8.744169E-2,6.8908255E-3,-7.4731335E-2,2.9345838E-2,-9.651269E-2,-3.405648E-2,1.0149093E-1,1.2503314E-2,-7.206815E-2,-2.8382527E-4,7.9737864E-2,-3.247038E-2,9.694188E-2,2.5850702E-2,-1.7099293E-2,1.08978786E-1,1.2185948E-1,3.7911482E-2],"categories":[],"categories_nodes":[],"categories_segments":[],"categories_sizes":[],"default_left":[0,0,0,0,0,0,0,0,0,0,0,0,0,0,0,0,0,0,0,0,0,0,0,0,0,0,0,0,0,0,0,0,0,0,0,0,0,0,0,0,0,0,0,0,0,0,0,0,0,0,0,0,0,0,0,0,0,0,0,0,0,0,0,0,0,0,0],"id":10,"left_children":[1,3,5,7,9,11,13,15,-1,17,19,21,23,25,27,29,31,-1,-1,33,-1,35,37,39,41,43,-1,45,-1,47,49,-1,-1,-1,-1,51,53,-1,-1,55,57,59,61,-1,-1,63,65,-1,-1,-1,-1,-1,-1,-1,-1,-1,-1,-1,-1,-1,-1,-1,-1,-1,-1,-1,-1],"loss_changes":[1.8008205E1,5.787203E0,8.043054E0,2.2018356E0,3.3319268E0,4.6395845E0,1.6404467E0,1.9171219E0,0E0,6.8421364E-2,4.146004E0,2.5185852E0,3.938824E0,8.47248E-1,1.1138678E0,1.1036587E0,1.5743512E0,0E0,0E0,1.927223E0,0E0,2.054893E0,1.919684E0,2.4079623E0,1.3133707E0,1.6309566E0,0E0,3.6419868E-1,0E0,1.9981575E-1,1.385479E0,0E0,0E0,0E0,0E0,2.8164256E0,5.1157475E-2,0E0,0E0,9.877831E-1,1.6965047E0,3.1278768E0,6.7114735E-1,0E0,0E0,2.6737688E0,3.7939835E-1,0E0,0E0,0E0,0E0,0E0,0E0,0E0,0E0,0E0,0E0,0E0,0E0,0E0,0E0,0E0,0E0,0E0,0E0,0E0,0E0],"parents":[2147483647,0,0,1,1,2,2,3,3,4,4,5,5,6,6,7,7,9,9,10,10,11,11,12,12,13,13,14,14,15,15,16,16,19,19,21,21,22,22,23,23,24,24,25,25,27,27,29,29,30,30,35,35,36,36,39,39,40,40,41,41,42,42,45,45,46,46],"right_children":[2,4,6,8,10,12,14,16,-1,18,20,22,24,26,28,30,32,-1,-1,34,-1,36,38,40,42,44,-1,46,-1,48,50,-1,-1,-1,-1,52,54,-1,-1,56,58,60,62,-1,-1,64,66,-1,-1,-1,-1,-1,-1,-1,-1,-1,-1,-1,-1,-1,-1,-1,-1,-1,-1,-1,-1],"split_conditions":[1.12E2,7E0,1.55E2,4.7E1,2.38E-1,3.01E1,2.86E1,4.1E1,3.7024684E-2,2.76E1,1E2,8E0,3.1E1,2.6E1,5.43E2,6.74E-1,2E0,-1.881219E-2,-8.226475E-2,2.7E1,1.1637863E-1,7.4E1,8.2E1,8E0,2.1E1,6E0,-3.709994E-2,7.2E1,-1.4278598E-3,3.1E1,1.8E1,-5.5307753E-2,5.3495646E-2,-8.178838E-2,4.6454124E-2,2.7E1,6E0,-2.7363924E-2,9.867238E-2,5.4E1,3.19E-1,7.8E1,1.83E2,-3.3169143E-2,9.626242E-2,2.7E1,2.5E2,-1.0346464E-1,-5.3031005E-2,-8.744169E-2,6.8908255E-3,-7.4731335E-2,2.9345838E-2,-9.651269E-2,-3.405648E-2,1.0149093E-1,1.2503314E-2,-7.206815E-2,-2.8382527E-4,7.9737864E-2,-3.247038E-2,9.694188E-2,2.5850702E-2,-1.7099293E-2,1.08978786E-1,1.2185948E-1,3.7911482E-2],"split_indices":[1,0,1,7,6,5,5,3,0,5,1,0,7,5,4,6,0,0,0,3,0,2,2,3,3,0,0,2,0,7,4,0,0,0,0,7,0,0,0,2,6,2,4,0,0,3,4,0,0,0,0,0,0,0,0,0,0,0,0,0,0,0,0,0,0,0,0],"split_type":[0,0,0,0,0,0,0,0,0,0,0,0,0,0,0,0,0,0,0,0,0,0,0,0,0,0,0,0,0,0,0,0,0,0,0,0,0,0,0,0,0,0,0,0,0,0,0,0,0,0,0,0,0,0,0,0,0,0,0,0,0,0,0,0,0,0,0],"sum_hessian":[1.160323E2,4.0658123E1,7.537418E1,3.2140545E1,8.517578E0,5.4587982E1,2.0786198E1,3.094842E1,1.1921263E0,2.2492025E0,6.268376E0,1.8607496E1,3.5980488E1,3.496973E0,1.7289225E1,2.760551E1,3.3429089E0,1.0055171E0,1.2436854E0,2.902403E0,3.3659725E0,1.543307E1,3.1744256E0,1.7738138E1,1.8242348E1,2.2387524E0,1.2582207E0,1.6109539E1,1.1796863E0,2.2557762E1,5.0477486E0,1.8213551E0,1.5215539E0,1.6818624E0,1.2205408E0,8.857161E0,6.57591E0,1.7241441E0,1.4502816E0,4.8444176E0,1.2893721E1,8.119193E0,1.0123156E1,1.0689094E0,1.169843E0,5.453322E0,1.0656217E1,1.8059118E1,4.498645E0,1.7264819E0,3.3212667E0,3.3999033E0,5.4572573E0,4.883011E0,1.6928991E0,1.2227086E0,3.621709E0,4.373897E0,8.519824E0,3.9517353E0,4.167458E0,7.4605503E0,2.6626048E0,2.5316503E0,2.9216716E0,8.854255E0,1.8019621E0],"tree_param":{"num_deleted":"0","num_feature":"8","num_nodes":"67","size_leaf_vector":"1"}},{"base_weights":[-7.913036E-3,-3.2898915E-1,4.181764E-1,-8.962477E-1,-1.486526E-1,-1.8924697E-1,6.29831E-1,1.1138192E-2,-9.952825E-1,1.9055453E-1,-4.6679246E-1,-5.540581E-1,2.2234155E-1,2.7064592E-1,8.044748E-1,-1.0276431E-1,-2.9912403E-2,-6.733233E-1,3.373422E-1,-8.078205E-1,2.3202775E-3,-1.7762946E-1,-9.8237716E-2,-4.285963E-2,4.1299763E-1,-2.1272786E-1,7.474939E-1,9.065893E-1,9.499003E-2,-1.25186965E-2,-8.135513E-2,4.739261E-1,-5.503723E-1,-9.915466E-1,-8.9585416E-2,-3.4085125E-1,7.583707E-1,-5.1779133E-1,5.5236448E-2,7.223188E-1,-3.213254E-2,-6.162579E-1,2.7879658E-1,2.1720725E-1,1.0635342E-1,9.66528E-1,-7.564095E-3,-4.3536088E-1,8.304611E-2,7.062504E-4,7.4467115E-2,-8.4404126E-2,1.2392331E-3,1.7861392E-2,-1.13986425E-1,3.6840864E-2,-7.211324E-2,-9.471398E-2,1.2253399E-2,9.882053E-2,3.2548074E-2,-8.3256386E-2,1.0853628E-2,1.13510266E-1,2.4070402E-3,-6.622671E-2,5.2814033E-2,-1.577884E-2,-8.2252055E-2,7.609936E-2,-5.3017594E-2,-5.136012E-2,1.00102805E-1,1.11429274E-1,6.01572E-2,-7.233632E-2,5.9741433E-3],"categories":[],"categories_nodes":[],"categories_segments":[],"categories_sizes":[],"default_left":[0,0,0,0,0,0,0,0,0,0,0,0,0,0,0,0,0,0,0,0,0,0,0,0,0,0,0,0,0,0,0,0,0,0,0,0,0,0,0,0,0,0,0,0,0,0,0,0,0,0,0,0,0,0,0,0,0,0,0,0,0,0,0,0,0,0,0,0,0,0,0,0,0,0,0,0,0],"id":11,"left_children":[1,3,5,7,9,11,13,-1,15,17,19,21,23,25,27,-1,-1,29,31,33,35,37,-1,-1,39,41,43,45,47,-1,-1,49,51,53,55,57,59,61,-1,63,65,67,69,71,-1,73,-1,75,-1,-1,-1,-1,-1,-1,-1,-1,-1,-1,-1,-1,-1,-1,-1,-1,-1,-1,-1,-1,-1,-1,-1,-1,-1,-1,-1,-1,-1],"loss_changes":[1.5758479E1,6.5851264E0,6.4840345E0,1.6719131E0,5.5960145E0,2.1595383E0,2.0998297E0,0E0,1.5751839E-2,3.4490488E0,4.261089E0,1.0308478E0,1.056423E0,3.2923176E0,1.6781216E0,0E0,0E0,2.07456E-1,2.9748442E0,1.9458551E0,3.4249308E0,1.5771759E0,0E0,0E0,8.479645E-1,1.6651785E0,9.529648E-1,1.3194981E0,1.992353E0,0E0,0E0,2.5147443E0,5.8020866E-1,2.3173237E0,1.4921093E0,2.6681693E0,8.828688E-2,8.9139795E-1,0E0,1.0035833E0,1.554821E0,2.906674E-1,1.9961684E0,2.7451339E0,0E0,4.0960503E-1,0E0,4.831463E-1,0E0,0E0,0E0,0E0,0E0,0E0,0E0,0E0,0E0,0E0,0E0,0E0,0E0,0E0,0E0,0E0,0E0,0E0,0E0,0E0,0E0,0E0,0E0,0E0,0E0,0E0,0E0,0E0,0E0],"parents":[2147483647,0,0,1,1,2,2,3,3,4,4,5,5,6,6,8,8,9,9,10,10,11,11,12,12,13,13,14,14,17,17,18,18,19,19,20,20,21,21,24,24,25,25,26,26,27,27,28,28,31,31,32,32,33,33,34,34,35,35,36,36,37,37,39,39,40,40,41,41,42,42,43,43,45,45,47,47],"right_children":[2,4,6,8,10,12,14,-1,16,18,20,22,24,26,28,-1,-1,30,32,34,36,38,-1,-1,40,42,44,46,48,-1,-1,50,52,54,56,58,60,62,-1,64,66,68,70,72,-1,74,-1,76,-1,-1,-1,-1,-1,-1,-1,-1,-1,-1,-1,-1,-1,-1,-1,-1,-1,-1,-1,-1,-1,-1,-1,-1,-1,-1,-1,-1,-1],"split_conditions":[1.28E2,2.7E1,3E1,1.91E1,1.4E1,1.46E2,3.06E-1,1.1138192E-2,2.65E1,9E1,5.03E-1,4.03E-1,2E0,3.8E1,2.91E2,-1.0276431E-1,-2.9912403E-2,3.19E1,8.8E1,1.45E2,4E0,2.3E1,-9.8237716E-2,-4.285963E-2,7.5E1,2.6E1,1.45E2,1.441E0,3.5E1,-1.25186965E-2,-8.135513E-2,3.1E1,3.53E1,5.4E1,4.16E-1,3.25E1,3.4E1,2.58E-1,5.5236448E-2,6E0,6E0,8E0,3.88E1,7E0,1.0635342E-1,6E0,-7.564095E-3,1.56E2,8.304611E-2,7.062504E-4,7.4467115E-2,-8.4404126E-2,1.2392331E-3,1.7861392E-2,-1.13986425E-1,3.6840864E-2,-7.211324E-2,-9.471398E-2,1.2253399E-2,9.882053E-2,3.2548074E-2,-8.3256386E-2,1.0853628E-2,1.13510266E-1,2.4070402E-3,-6.622671E-2,5.2814033E-2,-1.577884E-2,-8.2252055E-2,7.609936E-2,-5.3017594E-2,-5.136012E-2,1.00102805E-1,1.11429274E-1,6.01572E-2,-7.233632E-2,5.9741433E-3],"split_indices":[1,5,5,5,4,1,6,0,5,1,6,6,0,7,4,0,0,5,2,4,0,3,0,0,2,3,1,6,7,0,0,7,5,2,6,5,7,6,0,0,0,3,5,0,0,0,0,1,0,0,0,0,0,0,0,0,0,0,0,0,0,0,0,0,0,0,0,0,0,0,0,0,0,0,0,0,0],"split_type":[0,0,0,0,0,0,0,0,0,0,0,0,0,0,0,0,0,0,0,0,0,0,0,0,0,0,0,0,0,0,0,0,0,0,0,0,0,0,0,0,0,0,0,0,0,0,0,0,0,0,0,0,0,0,0,0,0,0,0,0,0,0,0,0,0,0,0,0,0,0,0,0,0,0,0,0,0],"sum_hessian":[1.1318192E2,6.467472E1,4.8507202E1,1.4643362E1,5.003136E1,1.2561904E1,3.59453E1,1.2992687E0,1.3344093E1,2.4408045E1,2.5623314E1,6.4758735E0,6.0860305E0,1.259376E1,2.335154E1,1.229634E1,1.0477531E0,3.024012E0,2.1384033E1,1.4419118E1,1.1204197E1,4.1996875E0,2.2761862E0,1.0960138E0,4.990017E0,6.5291467E0,6.0646124E0,2.0170614E1,3.1809268E0,1.0016009E0,2.0224113E0,1.8936577E1,2.4474568E0,1.1178979E1,3.2401392E0,8.084024E0,3.1201725E0,3.0630577E0,1.1366298E0,2.5767312E0,2.4132855E0,3.4461608E0,3.0829859E0,2.894755E0,3.1698575E0,1.90256E1,1.1450124E0,2.085277E0,1.0956495E0,7.3274527E0,1.1609124E1,1.2798021E0,1.1676548E0,1.2345626E0,9.944416E0,2.1196434E0,1.1204958E0,3.0497737E0,5.0342507E0,1.2001605E0,1.9200119E0,1.8194041E0,1.2436535E0,1.2261968E0,1.3505344E0,1.0501481E0,1.3631372E0,1.6169899E0,1.8291711E0,1.9687809E0,1.114205E0,1.6764424E0,1.2183124E0,1.2080981E1,6.9446197E0,1.026893E0,1.0583842E0],"tree_param":{"num_deleted":"0","num_feature":"8","num_nodes":"77","size_leaf_vector":"1"}},{"base_weights":[-8.9275E-3,-7.5916344E-1,1.6020893E-1,-9.8929554E-1,-1.3307557E-1,-1.0746013E-3,7.1494305E-1,-3.095505E-2,-1.0407162E0,5.669184E-1,-5.900162E-1,-6.559351E-1,1.1041059E-1,1.0832252E-1,8.2939273E-1,-1.0807934E-1,-2.8477311E-2,7.534835E-2,1.1129748E-2,-8.81783E-2,1.0718376E-2,2.4687422E-2,-7.798116E-1,-1.5619823E-1,3.4243923E-1,4.1106984E-1,-3.684235E-2,8.938654E-1,-2.9331525E-3,-8.9595807E-1,-2.2194257E-2,9.866908E-2,-2.4829297E-1,1.6173784E-1,6.4538705E-1,-3.142914E-2,9.0855256E-2,5.2528423E-1,1.0408372E0,-3.2241054E-2,-9.93055E-2,-8.200317E-2,-1.368756E-2,3.2750633E-2,-4.014055E-2,8.288573E-2,-1.0039934E-2,8.031289E-3,1.0004367E-1,1.1813694E-1,4.688396E-2],"categories":[],"categories_nodes":[],"categories_segments":[],"categories_sizes":[],"default_left":[0,0,0,0,0,0,0,0,0,0,0,0,0,0,0,0,0,0,0,0,0,0,0,0,0,0,0,0,0,0,0,0,0,0,0,0,0,0,0,0,0,0,0,0,0,0,0,0,0,0,0],"id":12,"left_children":[1,3,5,7,9,11,13,-1,15,17,19,21,23,25,27,-1,-1,-1,-1,-1,-1,-1,29,31,33,35,-1,37,-1,39,-1,-1,41,43,45,-1,-1,47,49,-1,-1,-1,-1,-1,-1,-1,-1,-1,-1,-1,-1],"loss_changes":[1.4286155E1,2.8523245E0,8.224476E0,2.0173073E-1,2.4845042E0,5.344321E0,1.3477058E0,0E0,1.0154343E-1,1.8515837E-1,1.0214971E0,1.3834686E0,3.9236045E0,7.918095E-1,9.823065E-1,0E0,0E0,0E0,0E0,0E0,0E0,0E0,4.2347336E-1,3.3813744E0,1.7439272E0,1.435292E0,0E0,3.2513714E-1,0E0,1.0419798E-1,0E0,0E0,1.6952974E0,2.23029E0,1.7635221E0,0E0,0E0,1.3165898E0,2.8917313E-1,0E0,0E0,0E0,0E0,0E0,0E0,0E0,0E0,0E0,0E0,0E0,0E0],"parents":[2147483647,0,0,1,1,2,2,3,3,4,4,5,5,6,6,8,8,9,9,10,10,11,11,12,12,13,13,14,14,22,22,23,23,24,24,25,25,27,27,29,29,32,32,33,33,34,34,37,37,38,38],"right_children":[2,4,6,8,10,12,14,-1,16,18,20,22,24,26,28,-1,-1,-1,-1,-1,-1,-1,30,32,34,36,-1,38,-1,40,-1,-1,42,44,46,-1,-1,48,50,-1,-1,-1,-1,-1,-1,-1,-1,-1,-1,-1,-1],"split_conditions":[1E2,3.1E1,1.55E2,1.64E-1,3.3E1,2.64E1,2.86E1,-3.095505E-2,4.8E1,9.1E1,4.2E1,1.95E1,3.1E1,2.6E1,5.43E2,-1.0807934E-1,-2.8477311E-2,7.534835E-2,1.1129748E-2,-8.81783E-2,1.0718376E-2,2.4687422E-2,1.32E2,2.4E1,5.28E-1,6E0,-3.684235E-2,3.02E-1,-2.9331525E-3,1.08E2,-2.2194257E-2,9.866908E-2,1.9E-1,8.5E1,1.154E0,-3.142914E-2,9.0855256E-2,3.8E1,4.4E1,-3.2241054E-2,-9.93055E-2,-8.200317E-2,-1.368756E-2,3.2750633E-2,-4.014055E-2,8.288573E-2,-1.0039934E-2,8.031289E-3,1.0004367E-1,1.1813694E-1,4.688396E-2],"split_indices":[1,3,1,6,3,5,5,0,7,1,3,5,7,5,4,0,0,0,0,0,0,0,1,2,6,0,0,6,0,1,0,0,6,2,6,0,0,7,7,0,0,0,0,0,0,0,0,0,0,0,0],"split_type":[0,0,0,0,0,0,0,0,0,0,0,0,0,0,0,0,0,0,0,0,0,0,0,0,0,0,0,0,0,0,0,0,0,0,0,0,0,0,0,0,0,0,0,0,0,0,0,0,0,0,0],"sum_hessian":[1.1062647E2,1.971012E1,9.091635E1,1.3988296E1,5.721823E0,7.1210625E1,1.9705729E1,1.477447E0,1.2510849E1,2.1648207E0,3.5570025E0,9.649014E0,6.1561607E1,3.4366791E0,1.626905E1,1.1472873E1,1.0379763E0,1.0720801E0,1.0927404E0,2.320967E0,1.2360356E0,1.0444175E0,8.604596E0,2.8798248E1,3.276336E1,2.1861627E0,1.2505164E0,1.5094815E1,1.1742351E0,6.6202474E0,1.9843494E0,1.4231528E0,2.7375095E1,2.148308E1,1.1280279E1,1.0391917E0,1.1469709E0,5.6071196E0,9.487696E0,1.5840192E0,5.036228E0,3.4273963E0,2.3947699E1,1.6920689E1,4.56239E0,8.963734E0,2.3165457E0,3.499205E0,2.1079144E0,6.7612133E0,2.726482E0],"tree_param":{"num_deleted":"0","num_feature":"8","num_nodes":"51","size_leaf_vector":"1"}},{"base_weights":[-7.944284E-3,-7.27457E-1,1.4907116E-1,-9.6236366E-1,-1.20684154E-1,-2.0998735E-3,6.781824E-1,-2.949803E-2,-1.0153803E0,5.2923703E-1,-5.633707E-1,-6.2696695E-1,1.01111844E-1,-3.7553318E-2,7.6461613E-1,-1.0577905E-1,-2.7169997E-2,-2.460454E-2,1.11764155E-1,-8.5269615E-2,1.0098486E-2,2.32936E-2,-7.5085944E-1,-1.4203931E-1,3.114127E-1,1.8290013E-2,-2.436965E-2,8.2184005E-1,-9.852057E-3,-8.687758E-1,-2.088706E-2,9.41273E-2,-2.2916977E-1,1.4527072E-1,5.9270114E-1,8.865447E-1,-5.722998E-3,-3.0728176E-2,-9.673019E-2,-2.925928E-2,5.686581E-2,2.9625846E-2,-3.7061393E-2,1.1492746E-1,3.1057775E-2,9.51568E-2,4.468658E-3],"categories":[],"categories_nodes":[],"categories_segments":[],"categories_sizes":[],"default_left":[0,0,0,0,0,0,0,0,0,0,0,0,0,0,0,0,0,0,0,0,0,0,0,0,0,0,0,0,0,0,0,0,0,0,0,0,0,0,0,0,0,0,0,0,0,0,0],"id":13,"left_children":[1,3,5,7,9,11,13,-1,15,17,19,21,23,25,27,-1,-1,-1,-1,-1,-1,-1,29,31,33,-1,-1,35,-1,37,-1,-1,39,41,43,45,-1,-1,-1,-1,-1,-1,-1,-1,-1,-1,-1],"loss_changes":[1.2453137E1,2.6980543E0,7.242241E0,1.990242E-1,2.212521E0,4.6686363E0,1.2733831E0,0E0,1.1138058E-1,1.740009E0,9.399804E-1,1.2681007E0,3.2220025E0,1.8640879E-1,9.699507E-1,0E0,0E0,0E0,0E0,0E0,0E0,0E0,4.0687895E-1,3.0009694E0,1.4858696E0,0E0,0E0,1.0169249E0,0E0,1.0353851E-1,0E0,0E0,1.5890577E0,1.8601329E0,1.5533104E0,8.2689285E-1,0E0,0E0,0E0,0E0,0E0,0E0,0E0,0E0,0E0,0E0,0E0],"parents":[2147483647,0,0,1,1,2,2,3,3,4,4,5,5,6,6,8,8,9,9,10,10,11,11,12,12,13,13,14,14,22,22,23,23,24,24,27,27,29,29,32,32,33,33,34,34,35,35],"right_children":[2,4,6,8,10,12,14,-1,16,18,20,22,24,26,28,-1,-1,-1,-1,-1,-1,-1,30,32,34,-1,-1,36,-1,38,-1,-1,40,42,44,46,-1,-1,-1,-1,-1,-1,-1,-1,-1,-1,-1],"split_conditions":[1E2,3.1E1,1.55E2,1.64E-1,3.3E1,2.64E1,2.5E1,-2.949803E-2,4.8E1,2.6E1,4.2E1,1.95E1,3.1E1,1.7E2,6.1E1,-1.0577905E-1,-2.7169997E-2,-2.460454E-2,1.11764155E-1,-8.5269615E-2,1.0098486E-2,2.32936E-2,1.32E2,2.4E1,5.28E-1,1.8290013E-2,-2.436965E-2,1.282E0,-9.852057E-3,1.08E2,-2.088706E-2,9.41273E-2,4.54E1,8.5E1,6.73E-1,1E1,-5.722998E-3,-3.0728176E-2,-9.673019E-2,-2.925928E-2,5.686581E-2,2.9625846E-2,-3.7061393E-2,1.1492746E-1,3.1057775E-2,9.51568E-2,4.468658E-3],"split_indices":[1,3,1,6,3,5,7,0,7,7,3,5,7,4,7,0,0,0,0,0,0,0,1,2,6,0,0,6,0,1,0,0,5,2,6,0,0,0,0,0,0,0,0,0,0,0,0],"split_type":[0,0,0,0,0,0,0,0,0,0,0,0,0,0,0,0,0,0,0,0,0,0,0,0,0,0,0,0,0,0,0,0,0,0,0,0,0,0,0,0,0,0,0,0,0,0,0],"sum_hessian":[1.0826963E2,1.8743908E1,8.952573E1,1.3090141E1,5.6537666E0,7.040618E1,1.9119541E1,1.4464064E0,1.1643735E1,2.2114944E0,3.442272E0,9.261344E0,6.114484E1,2.1210637E0,1.6998476E1,1.0615958E1,1.027776E0,1.2052711E0,1.0062234E0,2.200476E0,1.241796E0,1.0554712E0,8.205873E0,2.8508139E1,3.2636703E1,1.0794408E0,1.0416229E0,1.5986456E1,1.0120202E0,6.2443895E0,1.9614834E0,1.3924513E0,2.7115688E1,2.1471241E1,1.1165461E1,1.4882515E1,1.1039414E0,1.5469877E0,4.697402E0,2.5705502E1,1.4101857E0,1.6939238E1,4.532003E0,2.7219446E0,8.443517E0,1.3694466E1,1.1880494E0],"tree_param":{"num_deleted":"0","num_feature":"8","num_nodes":"47","size_leaf_vector":"1"}},{"base_weights":[-7.114863E-3,-5.284207E-1,1.8690377E-1,-9.397735E-1,-2.5719836E-1,6.483342E-2,7.7429885E-1,-1.045221E-1,1.8243926E-3,-7.3865026E-1,-3.5513777E-4,-3.7284282E-1,1.9018495E-1,2.6694223E-1,9.994146E-2,-9.008798E-2,-2.898483E-1,-4.3675008E-1,2.9112846E-1,4.2883402E-1,-6.508931E-1,-1.1509445E-1,3.5149154E-1,-2.0359492E-2,4.6485823E-1,-6.679802E-2,2.220343E-2,7.550246E-2,-8.6833763E-1,5.634662E-1,-5.79826E-2,7.6210433E-1,-3.6234207E-2,-9.7961795E-1,9.221248E-2,7.5375706E-2,-8.333285E-2,7.8290296E-1,1.6350715E-1,7.124051E-2,-5.1355953E-3,-9.9487536E-2,-2.0342298E-2,7.535114E-2,-2.5913974E-2,1.1193251E-2,1.0268159E-1,-1.2015744E-2,-1.0915115E-1,7.019989E-2,-3.9000683E-2,-2.810294E-2,7.8778155E-2,1.0810212E-1,4.3906122E-2,7.250801E-2,-3.5714505E-3],"categories":[],"categories_nodes":[],"categories_segments":[],"categories_sizes":[],"default_left":[0,0,0,0,0,0,0,0,0,0,0,0,0,0,0,0,0,0,0,0,0,0,0,0,0,0,0,0,0,0,0,0,0,0,0,0,0,0,0,0,0,0,0,0,0,0,0,0,0,0,0,0,0,0,0,0,0],"id":14,"left_children":[1,3,5,7,9,11,13,-1,-1,15,17,19,21,23,-1,-1,25,27,29,31,33,35,37,-1,39,-1,-1,-1,41,43,-1,45,-1,47,49,51,-1,53,55,-1,-1,-1,-1,-1,-1,-1,-1,-1,-1,-1,-1,-1,-1,-1,-1,-1,-1],"loss_changes":[1.0925764E1,3.0267525E0,5.5965066E0,1.156951E0,2.3531644E0,3.7079298E0,1.2703552E0,0E0,0E0,2.2090769E-1,1.8331017E0,3.6443434E0,2.6107395E0,6.0690695E-1,0E0,0E0,7.7391505E-1,3.6237712E0,2.3762393E0,1.460202E0,2.9255137E0,2.6344364E0,2.6615543E0,0E0,5.703068E-1,0E0,0E0,0E0,1.9319248E-1,1.3036015E0,0E0,4.8432636E-1,0E0,6.509633E-1,1.5892473E0,4.2267346E0,0E0,5.6840515E-1,2.8476417E0,0E0,0E0,0E0,0E0,0E0,0E0,0E0,0E0,0E0,0E0,0E0,0E0,0E0,0E0,0E0,0E0,0E0,0E0],"parents":[2147483647,0,0,1,1,2,2,3,3,4,4,5,5,6,6,9,9,10,10,11,11,12,12,13,13,16,16,17,17,18,18,19,19,20,20,21,21,22,22,24,24,28,28,29,29,31,31,33,33,34,34,35,35,37,37,38,38],"right_children":[2,4,6,8,10,12,14,-1,-1,16,18,20,22,24,-1,-1,26,28,30,32,34,36,38,-1,40,-1,-1,-1,42,44,-1,46,-1,48,50,52,-1,54,56,-1,-1,-1,-1,-1,-1,-1,-1,-1,-1,-1,-1,-1,-1,-1,-1,-1,-1],"split_conditions":[1.07E2,2.97E1,1.66E2,1.05E2,2.6E1,2.5E1,1.7E1,-1.045221E-1,1.8243926E-3,4.99E-1,2.9E-1,8E0,3.02E1,7.2E1,9.994146E-2,-9.008798E-2,9.1E1,3.21E1,8.74E-1,2.4E1,3.4E1,5.5E1,3.31E1,-2.0359492E-2,4.4E1,-6.679802E-2,2.220343E-2,7.550246E-2,3.96E1,8.2E1,-5.79826E-2,3E0,-3.6234207E-2,2.42E1,1E0,4.1E1,-8.333285E-2,7.8E1,6.8E1,7.124051E-2,-5.1355953E-3,-9.9487536E-2,-2.0342298E-2,7.535114E-2,-2.5913974E-2,1.1193251E-2,1.0268159E-1,-1.2015744E-2,-1.0915115E-1,7.019989E-2,-3.9000683E-2,-2.810294E-2,7.8778155E-2,1.0810212E-1,4.3906122E-2,7.250801E-2,-3.5714505E-3],"split_indices":[1,5,1,1,7,7,3,0,0,6,6,3,5,2,0,0,1,5,6,7,3,7,5,0,7,0,0,0,5,2,0,0,0,5,0,7,0,2,2,0,0,0,0,0,0,0,0,0,0,0,0,0,0,0,0,0,0],"split_type":[0,0,0,0,0,0,0,0,0,0,0,0,0,0,0,0,0,0,0,0,0,0,0,0,0,0,0,0,0,0,0,0,0,0,0,0,0,0,0,0,0,0,0,0,0,0,0,0,0,0,0,0,0,0,0,0,0],"sum_hessian":[1.0604642E2,2.8295662E1,7.7750755E1,1.0263872E1,1.803179E1,6.529231E1,1.2458442E1,9.164162E0,1.0997099E0,5.6204295E0,1.2411361E1,1.4096997E1,5.1195316E1,4.5007157E0,7.957726E0,3.3883393E0,2.2320902E0,4.770633E0,7.640727E0,3.490595E0,1.0606401E1,1.7798122E1,3.3397194E1,1.3240788E0,3.1766367E0,1.108376E0,1.1237142E0,1.069083E0,3.7015502E0,6.0896187E0,1.5511085E0,2.4818854E0,1.0087095E0,7.1328106E0,3.473591E0,1.4774968E1,3.0231543E0,9.1754465E0,2.4221748E1,1.8901647E0,1.2864721E0,2.6928399E0,1.0087104E0,5.015005E0,1.0746135E0,1.129792E0,1.3520935E0,1.060547E0,6.0722637E0,1.3326423E0,2.1409488E0,1.0251719E1,4.5232487E0,3.7661576E0,5.409289E0,5.6515107E0,1.8570238E1],"tree_param":{"num_deleted":"0","num_feature":"8","num_nodes":"57","size_leaf_vector":"1"}},{"base_weights":[-6.8724924E-3,-6.760088E-1,1.3043882E-1,-9.1842574E-1,-9.755809E-2,2.538162E-2,7.3018825E-1,-2.478587E-2,-9.760297E-1,5.102734E-1,-5.284886E-1,-8.254926E-2,4.9839255E-1,2.514021E-1,9.479599E-1,-1.02084875E-1,-3.0171743E-2,-2.1105645E-2,1.0149218E-1,-8.1368E-2,9.19472E-3,-6.776907E-1,1.559163E-2,-2.3522558E-2,7.408845E-1,-1.9165466E-2,4.407781E-1,4.0864963E-2,1.0450962E0,-9.500426E-2,-2.3325169E-1,-3.7651563E-1,1.3274409E-1,-3.4568936E-1,6.350612E-2,-2.6281157E-3,8.968416E-1,-1.3144905E-3,7.135876E-2,1.1296125E-1,3.0679459E-2,-6.011457E-2,2.4597576E-2,-8.4091E-2,4.366229E-3,7.4679144E-3,1.0823989E-1,4.9924057E-2,-8.5453354E-2,2.9545818E-2,1.0980971E-1],"categories":[],"categories_nodes":[],"categories_segments":[],"categories_sizes":[],"default_left":[0,0,0,0,0,0,0,0,0,0,0,0,0,0,0,0,0,0,0,0,0,0,0,0,0,0,0,0,0,0,0,0,0,0,0,0,0,0,0,0,0,0,0,0,0,0,0,0,0,0,0],"id":15,"left_children":[1,3,5,7,9,11,13,-1,15,17,19,21,23,25,27,-1,-1,-1,-1,-1,-1,29,31,33,35,-1,37,-1,39,-1,41,43,45,47,-1,-1,49,-1,-1,-1,-1,-1,-1,-1,-1,-1,-1,-1,-1,-1,-1],"loss_changes":[9.731388E0,2.438962E0,5.5212812E0,2.4432182E-1,1.9575763E0,3.913619E0,1.1243906E0,0E0,3.204441E-2,1.3725367E0,8.2893777E-1,3.6679611E0,1.8189485E0,5.415024E-1,2.4628162E-2,0E0,0E0,0E0,0E0,0E0,0E0,8.5408545E-1,2.5641508E0,1.3832693E0,1.1900697E0,0E0,5.1945156E-1,0E0,6.929493E-2,0E0,9.768555E-1,2.544384E0,2.2836561E0,2.2885222E0,0E0,0E0,6.596651E-1,0E0,0E0,0E0,0E0,0E0,0E0,0E0,0E0,0E0,0E0,0E0,0E0,0E0,0E0],"parents":[2147483647,0,0,1,1,2,2,3,3,4,4,5,5,6,6,8,8,9,9,10,10,11,11,12,12,13,13,14,14,21,21,22,22,23,23,24,24,26,26,28,28,30,30,31,31,32,32,33,33,36,36],"right_children":[2,4,6,8,10,12,14,-1,16,18,20,22,24,26,28,-1,-1,-1,-1,-1,-1,30,32,34,36,-1,38,-1,40,-1,42,44,46,48,-1,-1,50,-1,-1,-1,-1,-1,-1,-1,-1,-1,-1,-1,-1,-1,-1],"split_conditions":[1E2,3.1E1,1.66E2,1.64E-1,3.3E1,8E0,1.7E1,-2.478587E-2,4.7E1,2.6E1,4.2E1,2.64E1,2.59E-1,7.2E1,7.1E1,-1.02084875E-1,-3.0171743E-2,-2.1105645E-2,1.0149218E-1,-8.1368E-2,9.19472E-3,3E0,2.5E1,8.5E1,2.77E1,-1.9165466E-2,1.84E2,4.0864963E-2,8.28E-1,-9.500426E-2,2.69E-1,3.29E1,4.83E1,1.55E-1,6.350612E-2,-2.6281157E-3,4.21E-1,-1.3144905E-3,7.135876E-2,1.1296125E-1,3.0679459E-2,-6.011457E-2,2.4597576E-2,-8.4091E-2,4.366229E-3,7.4679144E-3,1.0823989E-1,4.9924057E-2,-8.5453354E-2,2.9545818E-2,1.0980971E-1],"split_indices":[1,3,1,6,3,0,3,0,7,7,3,5,6,2,4,0,0,0,0,0,0,0,7,2,5,0,1,0,6,0,6,5,5,6,0,0,6,0,0,0,0,0,0,0,0,0,0,0,0,0,0],"split_type":[0,0,0,0,0,0,0,0,0,0,0,0,0,0,0,0,0,0,0,0,0,0,0,0,0,0,0,0,0,0,0,0,0,0,0,0,0,0,0,0,0,0,0,0,0,0,0,0,0,0,0],"sum_hessian":[1.03954414E2,1.7032005E1,8.692241E1,1.1587983E1,5.4440217E0,7.485287E1,1.2069544E1,1.3361919E0,1.0251791E1,2.1820707E0,3.2619512E0,6.1618366E1,1.32345E1,4.4469805E0,7.622564E0,9.130977E0,1.1208143E0,1.1376797E0,1.0443909E0,2.021347E0,1.2406042E0,7.8867316E0,5.3731636E1,4.4848213E0,8.749679E0,1.3280032E0,3.118977E0,1.9580793E0,5.6644845E0,4.184717E0,3.7020144E0,1.1851379E1,4.1880257E1,3.3306377E0,1.1541834E0,1.6186911E0,7.130987E0,1.528143E0,1.590834E0,4.607079E0,1.0574052E0,1.9503562E0,1.7516581E0,5.1538534E0,6.6975265E0,4.0483597E1,1.3966589E0,1.2589836E0,2.0716543E0,2.4068902E0,4.7240973E0],"tree_param":{"num_deleted":"0","num_feature":"8","num_nodes":"51","size_leaf_vector":"1"}},{"base_weights":[-5.1848325E-3,-6.4888793E-1,1.22363135E-1,-8.9411086E-1,-8.871082E-2,2.3791563E-2,6.935174E-1,-2.3615608E-2,-9.53661E-1,4.834662E-1,-5.0558573E-1,-7.683678E-2,4.6799555E-1,-3.1369764E-3,8.072835E-1,-1.0115015E-1,-3.2302048E-2,-2.012761E-2,9.536626E-2,-7.882985E-2,8.666118E-3,-6.500748E-1,1.4589701E-2,-1.6486716E-2,6.9452405E-1,9.17497E-1,-1.108369E-2,-9.2531025E-2,-2.2020927E-1,3.155492E-1,-1.3500656E-1,-4.0218455E-1,5.0709613E-2,-2.466565E-3,8.439155E-1,9.8388547E-1,1.7048363E-2,2.2648554E-2,-5.8577847E-2,4.9176272E-2,-2.0411206E-2,-5.6179203E-2,2.554156E-3,3.4289498E-2,-9.58518E-2,1.188822E-1,4.316249E-2,4.4171177E-2,1.11711204E-1],"categories":[],"categories_nodes":[],"categories_segments":[],"categories_sizes":[],"default_left":[0,0,0,0,0,0,0,0,0,0,0,0,0,0,0,0,0,0,0,0,0,0,0,0,0,0,0,0,0,0,0,0,0,0,0,0,0,0,0,0,0,0,0,0,0,0,0,0,0],"id":16,"left_children":[1,3,5,7,9,11,13,-1,15,17,19,21,23,-1,25,-1,-1,-1,-1,-1,-1,27,29,31,33,35,-1,-1,37,39,41,43,-1,-1,45,47,-1,-1,-1,-1,-1,-1,-1,-1,-1,-1,-1,-1,-1],"loss_changes":[8.540209E0,2.2835598E0,4.873122E0,2.392292E-1,1.7584565E0,3.3930192E0,1.0765586E0,0E0,5.7751656E-2,1.2179005E0,7.649915E-1,3.2635996E0,1.5492787E0,0E0,1.2203841E0,0E0,0E0,0E0,0E0,0E0,0E0,8.093264E-1,2.4975803E0,1.3027508E0,1.0491428E0,3.2711983E-1,0E0,0E0,8.927805E-1,1.7856841E0,2.5580425E0,1.8585534E0,0E0,0E0,6.178508E-1,1.5334797E-1,0E0,0E0,0E0,0E0,0E0,0E0,0E0,0E0,0E0,0E0,0E0,0E0,0E0],"parents":[2147483647,0,0,1,1,2,2,3,3,4,4,5,5,6,6,8,8,9,9,10,10,11,11,12,12,14,14,21,21,22,22,23,23,24,24,25,25,28,28,29,29,30,30,31,31,34,34,35,35],"right_children":[2,4,6,8,10,12,14,-1,16,18,20,22,24,-1,26,-1,-1,-1,-1,-1,-1,28,30,32,34,36,-1,-1,38,40,42,44,-1,-1,46,48,-1,-1,-1,-1,-1,-1,-1,-1,-1,-1,-1,-1,-1],"split_conditions":[1E2,3.1E1,1.66E2,1.64E-1,3.3E1,8E0,2.86E1,-2.3615608E-2,3.56E1,2.6E1,4.2E1,2.64E1,2.59E-1,-3.1369764E-3,1.222E0,-1.0115015E-1,-3.2302048E-2,-2.012761E-2,9.536626E-2,-7.882985E-2,8.666118E-3,3E0,8E0,2E1,2.77E1,9E0,-1.108369E-2,-9.2531025E-2,5E0,8.4E1,2.5E1,1E1,5.0709613E-2,-2.466565E-3,1.23E2,7E1,1.7048363E-2,2.2648554E-2,-5.8577847E-2,4.9176272E-2,-2.0411206E-2,-5.6179203E-2,2.554156E-3,3.4289498E-2,-9.58518E-2,1.188822E-1,4.316249E-2,4.4171177E-2,1.11711204E-1],"split_indices":[1,3,1,6,3,0,5,0,5,7,3,5,6,0,6,0,0,0,0,0,0,0,3,3,5,0,0,0,0,2,7,0,0,0,1,2,0,0,0,0,0,0,0,0,0,0,0,0,0],"split_type":[0,0,0,0,0,0,0,0,0,0,0,0,0,0,0,0,0,0,0,0,0,0,0,0,0,0,0,0,0,0,0,0,0,0,0,0,0,0,0,0,0,0,0,0,0,0,0,0,0],"sum_hessian":[1.02051125E2,1.6201044E1,8.5850075E1,1.0853639E1,5.3474054E0,7.410284E1,1.1747242E1,1.3129425E0,9.540696E0,2.1865463E0,3.160859E0,6.1090614E1,1.301222E1,1.6918015E0,1.0055441E1,8.185977E0,1.3547196E0,1.1230263E0,1.0635202E0,1.9154683E0,1.2453908E0,7.5626903E0,5.3527927E1,4.441115E0,8.571105E0,8.978337E0,1.0771027E0,3.9079437E0,3.6547463E0,1.7404339E1,3.612359E1,2.690797E0,1.7503177E0,1.6177828E0,6.9533224E0,7.954329E0,1.0240085E0,1.8160923E0,1.838654E0,1.3037201E1,4.367138E0,9.191251E0,2.6932337E1,1.3142785E0,1.3765186E0,2.7605205E0,4.192802E0,2.4202933E0,5.5340357E0],"tree_param":{"num_deleted":"0","num_feature":"8","num_nodes":"49","size_leaf_vector":"1"}},{"base_weights":[-5.0710957E-3,-4.6498436E-1,1.5536818E-1,-8.7692934E-1,-2.202681E-1,5.645114E-2,6.579674E-1,-9.9735565E-2,3.696461E-3,-6.734646E-1,8.112325E-3,-6.798096E-2,3.8606063E-1,1.9893296E-1,8.785769E-1,-8.5445955E-2,-2.1733262E-2,-3.8658443E-1,2.66943E-1,4.1853014E-2,-8.64659E-1,6.2869096E-1,-3.26484E-1,-2.1238139E-2,3.869702E-1,3.6272887E-2,9.766538E-1,6.713261E-2,-8.115973E-1,5.257884E-1,-5.6695003E-2,-2.74808E-1,2.564931E-1,-1.4095368E-2,-1.0648352E-1,7.983615E-1,1.1087244E-1,-7.7584577E-1,5.5776995E-2,6.3964374E-2,-8.591347E-3,1.0616173E-1,2.6957257E-2,-9.30689E-2,-2.389205E-2,7.047522E-2,-2.4783203E-2,-4.8103638E-2,4.925112E-2,1.7194582E-2,1.0264813E-1,9.4123915E-2,1.4041222E-2,-4.9916394E-2,8.370384E-2,-2.1331035E-2,-9.112724E-2],"categories":[],"categories_nodes":[],"categories_segments":[],"categories_sizes":[],"default_left":[0,0,0,0,0,0,0,0,0,0,0,0,0,0,0,0,0,0,0,0,0,0,0,0,0,0,0,0,0,0,0,0,0,0,0,0,0,0,0,0,0,0,0,0,0,0,0,0,0,0,0,0,0,0,0,0,0],"id":17,"left_children":[1,3,5,7,9,11,13,-1,-1,15,17,19,21,23,25,-1,-1,27,29,31,33,35,37,-1,39,-1,41,-1,43,45,-1,47,49,-1,-1,51,53,55,-1,-1,-1,-1,-1,-1,-1,-1,-1,-1,-1,-1,-1,-1,-1,-1,-1,-1,-1],"loss_changes":[7.537181E0,2.4697175E0,3.7289271E0,1.0833468E0,1.858794E0,2.6670926E0,1.0772223E0,0E0,0E0,3.1062627E-1,1.4204893E0,4.2006984E0,3.281882E0,4.9254727E-1,5.3392887E-2,0E0,0E0,3.0246835E0,2.1067247E0,2.9781995E0,6.919718E-1,1.1078687E0,2.4904687E0,0E0,5.323604E-1,0E0,8.505535E-2,0E0,7.6859236E-2,1.1317832E0,0E0,3.0482054E0,1.5170802E0,0E0,0E0,8.168516E-1,2.4209898E0,9.906435E-2,0E0,0E0,0E0,0E0,0E0,0E0,0E0,0E0,0E0,0E0,0E0,0E0,0E0,0E0,0E0,0E0,0E0,0E0,0E0],"parents":[2147483647,0,0,1,1,2,2,3,3,4,4,5,5,6,6,9,9,10,10,11,11,12,12,13,13,14,14,17,17,18,18,19,19,20,20,21,21,22,22,24,24,26,26,28,28,29,29,31,31,32,32,35,35,36,36,37,37],"right_children":[2,4,6,8,10,12,14,-1,-1,16,18,20,22,24,26,-1,-1,28,30,32,34,36,38,-1,40,-1,42,-1,44,46,-1,48,50,-1,-1,52,54,56,-1,-1,-1,-1,-1,-1,-1,-1,-1,-1,-1,-1,-1,-1,-1,-1,-1,-1,-1],"split_conditions":[1.07E2,2.97E1,1.66E2,1.05E2,2.6E1,4.2E1,1.7E1,-9.9735565E-2,3.696461E-3,4.99E-1,2.9E-1,2.25E2,5.5E1,7.2E1,7.1E1,-8.5445955E-2,-2.1733262E-2,3.21E1,8.74E-1,3.16E1,7E1,3.72E1,2.89E1,-2.1238139E-2,4.4E1,3.6272887E-2,8.28E-1,6.713261E-2,8E1,8.2E1,-5.6695003E-2,7E0,4.62E1,-1.4095368E-2,-1.0648352E-1,1.53E2,3.7E1,2.39E1,5.5776995E-2,6.3964374E-2,-8.591347E-3,1.0616173E-1,2.6957257E-2,-9.30689E-2,-2.389205E-2,7.047522E-2,-2.4783203E-2,-4.8103638E-2,4.925112E-2,1.7194582E-2,1.0264813E-1,9.4123915E-2,1.4041222E-2,-4.9916394E-2,8.370384E-2,-2.1331035E-2,-9.112724E-2],"split_indices":[1,5,1,1,7,7,3,0,0,6,6,4,7,2,4,0,0,5,6,5,2,5,5,0,7,0,6,0,2,2,0,0,5,0,0,1,3,5,0,0,0,0,0,0,0,0,0,0,0,0,0,0,0,0,0,0,0],"split_type":[0,0,0,0,0,0,0,0,0,0,0,0,0,0,0,0,0,0,0,0,0,0,0,0,0,0,0,0,0,0,0,0,0,0,0,0,0,0,0,0,0,0,0,0,0,0,0,0,0,0,0,0,0,0,0,0,0],"sum_hessian":[1.0016715E2,2.5414904E1,7.475225E1,8.508538E0,1.6906366E1,6.3388935E1,1.1363318E1,7.437194E0,1.0713445E0,5.0119047E0,1.1894461E1,4.659314E1,1.6795795E1,4.3057814E0,7.0575366E0,2.9629304E0,2.0489743E0,4.5153384E0,7.3791223E0,4.1780533E1,4.8126054E0,1.2617173E1,4.1786222E0,1.3102543E0,2.9955268E0,1.8780595E0,5.179477E0,1.1280177E0,3.3873208E0,5.913129E0,1.4659936E0,1.6765652E1,2.5014881E1,1.4119762E0,3.400629E0,9.095218E0,3.5219555E0,2.8519244E0,1.3266978E0,1.7225047E0,1.2730222E0,4.1762486E0,1.0032287E0,2.2866435E0,1.1006774E0,4.8745146E0,1.0386143E0,1.3508214E1,3.2574375E0,2.3642199E1,1.3726828E0,7.1187696E0,1.9764482E0,2.0839105E0,1.4380449E0,1.0530131E0,1.7989113E0],"tree_param":{"num_deleted":"0","num_feature":"8","num_nodes":"57","size_leaf_vector":"1"}},{"base_weights":[-4.795469E-3,-6.0410315E-1,1.0749905E-1,-8.5457987E-1,-7.1181774E-2,-4.048842E-3,5.2241886E-1,-9.8043635E-2,-3.481272E-1,4.7018054E-1,-4.7836998E-1,-5.195596E-1,7.228504E-2,-1.0706894E-2,6.012192E-1,-6.8164594E-2,2.6668547E-2,-1.6301088E-2,8.697517E-2,-7.5415425E-2,7.3925443E-3,-1.2328426E-1,-8.860662E-2,1.083829E-1,-8.8788584E-2,6.604308E-1,-1.172176E-2,-6.632709E-2,2.3143986E-1,-3.6605686E-2,3.755399E-1,2.98707E-1,8.7459004E-1,6.2683724E-2,-3.2717172E-2,1.3217844E-2,-5.6179035E-2,1.9070871E-2,9.8605156E-2,5.511101E-2,-4.233125E-2,1.01536885E-1,4.769276E-2],"categories":[],"categories_nodes":[],"categories_segments":[],"categories_sizes":[],"default_left":[0,0,0,0,0,0,0,0,0,0,0,0,0,0,0,0,0,0,0,0,0,0,0,0,0,0,0,0,0,0,0,0,0,0,0,0,0,0,0,0,0,0,0],"id":18,"left_children":[1,3,5,7,9,11,13,-1,15,17,19,21,23,-1,25,-1,-1,-1,-1,-1,-1,27,-1,29,-1,31,-1,-1,33,35,37,39,41,-1,-1,-1,-1,-1,-1,-1,-1,-1,-1],"loss_changes":[6.7515016E0,2.0522237E0,3.9142728E0,3.3928823E-1,1.5810877E0,2.6980357E0,9.531274E-1,0E0,9.355333E-1,9.3755454E-1,6.660599E-1,1.1749654E0,2.1677608E0,0E0,7.612357E-1,0E0,0E0,0E0,0E0,0E0,0E0,1.189798E0,0E0,2.2794416E0,0E0,9.008784E-1,0E0,0E0,1.090016E0,3.5159652E0,2.1439264E0,1.5267398E0,1.4217854E-2,0E0,0E0,0E0,0E0,0E0,0E0,0E0,0E0,0E0,0E0],"parents":[2147483647,0,0,1,1,2,2,3,3,4,4,5,5,6,6,8,8,9,9,10,10,11,11,12,12,14,14,21,21,23,23,25,25,28,28,29,29,30,30,31,31,32,32],"right_children":[2,4,6,8,10,12,14,-1,16,18,20,22,24,-1,26,-1,-1,-1,-1,-1,-1,28,-1,30,-1,32,-1,-1,34,36,38,40,42,-1,-1,-1,-1,-1,-1,-1,-1,-1,-1],"split_conditions":[1E2,3.1E1,1.55E2,9.5E1,3.3E1,2.64E1,2.5E1,-9.8043635E-2,2.7E1,2.6E1,4.2E1,1.4E1,1.53E2,-1.0706894E-2,1.282E0,-6.8164594E-2,2.6668547E-2,-1.6301088E-2,8.697517E-2,-7.5415425E-2,7.3925443E-3,3E0,-8.860662E-2,5.28E-1,-8.8788584E-2,3.06E-1,-1.172176E-2,-6.632709E-2,7.4E1,3.81E-1,8E0,2.69E-1,6.19E-1,6.2683724E-2,-3.2717172E-2,1.3217844E-2,-5.6179035E-2,1.9070871E-2,9.8605156E-2,5.511101E-2,-4.233125E-2,1.01536885E-1,4.769276E-2],"split_indices":[1,3,1,1,3,5,7,0,5,7,3,3,1,0,6,0,0,0,0,0,0,0,0,6,0,6,0,0,2,6,0,6,6,0,0,0,0,0,0,0,0,0,0],"split_type":[0,0,0,0,0,0,0,0,0,0,0,0,0,0,0,0,0,0,0,0,0,0,0,0,0,0,0,0,0,0,0,0,0,0,0,0,0,0,0,0,0,0,0],"sum_hessian":[9.835607E1,1.4829969E1,8.35261E1,9.677773E0,5.1521964E0,6.660904E1,1.6917067E1,7.0018773E0,2.6758964E0,2.1452956E0,3.0069005E0,7.842093E0,5.8766945E1,1.8421901E0,1.5074877E1,1.6643356E0,1.0115608E0,1.0590609E0,1.0862347E0,1.7617128E0,1.2451878E0,4.4101324E0,3.4319603E0,5.7492615E1,1.274328E0,1.4001639E1,1.0732373E0,1.4036198E0,3.0065126E0,3.7826694E1,1.966592E1,6.097501E0,7.9041386E0,1.6889226E0,1.3175901E0,2.9192965E1,8.633731E0,1.6103111E1,3.5628092E0,4.6934705E0,1.40403E0,4.69034E0,3.2137983E0],"tree_param":{"num_deleted":"0","num_feature":"8","num_nodes":"43","size_leaf_vector":"1"}},{"base_weights":[-6.092104E-3,-3.652267E-1,1.6053677E-1,-5.2575606E-1,1.6167194E-1,6.659331E-2,6.0033643E-1,-7.8937304E-1,-2.7303123E-1,-5.6842506E-2,4.6998507E-1,1.4121181E-1,-3.4659234E-1,1.6054946E-1,8.2123566E-1,-9.2550975E-1,1.2353375E-2,2.0830224E-1,-6.0738593E-1,-2.0736748E-1,9.276987E-2,-1.7122175E-1,3.083025E-1,-6.87985E-1,8.55649E-2,-1.1202116E-1,4.65998E-2,3.2823604E-2,9.201019E-2,-3.573357E-2,-1.01073734E-1,-2.3689254E-1,6.866064E-1,-8.0804485E-1,5.042659E-3,-6.601419E-2,3.6163867E-2,1.1079268E-1,-5.3651875E-1,1.318037E-1,6.221246E-1,-1.0170269E0,1.7416818E-2,-5.7172116E-2,3.3036113E-2,4.6064503E-2,-7.687231E-2,-2.8871477E-2,1.3768193E-1,-9.6760534E-2,-1.1353647E-2,-2.1903465E-2,1.2229681E-1,-8.511503E-2,6.665614E-4,-6.663603E-3,8.2725085E-2,9.475006E-2,-1.3713211E-2,-1.1718626E-1,-1.9826405E-2],"categories":[],"categories_nodes":[],"categories_segments":[],"categories_sizes":[],"default_left":[0,0,0,0,0,0,0,0,0,0,0,0,0,0,0,0,0,0,0,0,0,0,0,0,0,0,0,0,0,0,0,0,0,0,0,0,0,0,0,0,0,0,0,0,0,0,0,0,0,0,0,0,0,0,0,0,0,0,0,0,0],"id":19,"left_children":[1,3,5,7,9,11,13,15,17,-1,19,21,23,25,27,29,-1,31,33,35,-1,37,39,41,-1,43,-1,-1,-1,-1,-1,45,47,49,-1,-1,-1,51,53,55,57,59,-1,-1,-1,-1,-1,-1,-1,-1,-1,-1,-1,-1,-1,-1,-1,-1,-1,-1,-1],"loss_changes":[5.9124694E0,2.7330804E0,2.749436E0,1.3988576E0,2.0850055E0,1.7987866E0,1.0104465E0,1.5226154E0,2.3635707E0,0E0,2.1224675E0,2.5995533E0,4.270805E0,4.829986E-1,6.7635536E-2,1.22039795E-1,0E0,1.5344892E0,1.1571467E0,1.0960542E0,0E0,1.8768865E0,1.6983418E0,2.3165314E0,0E0,9.08888E-1,0E0,0E0,0E0,0E0,0E0,1.8677384E0,2.660894E0,6.148386E-1,0E0,0E0,0E0,4.2239594E0,1.3484886E0,3.0692792E0,2.9218583E0,4.7816706E-1,0E0,0E0,0E0,0E0,0E0,0E0,0E0,0E0,0E0,0E0,0E0,0E0,0E0,0E0,0E0,0E0,0E0,0E0,0E0],"parents":[2147483647,0,0,1,1,2,2,3,3,4,4,5,5,6,6,7,7,8,8,10,10,11,11,12,12,13,13,14,14,15,15,17,17,18,18,19,19,21,21,22,22,23,23,25,25,31,31,32,32,33,33,37,37,38,38,39,39,40,40,41,41],"right_children":[2,4,6,8,10,12,14,16,18,-1,20,22,24,26,28,30,-1,32,34,36,-1,38,40,42,-1,44,-1,-1,-1,-1,-1,46,48,50,-1,-1,-1,52,54,56,58,60,-1,-1,-1,-1,-1,-1,-1,-1,-1,-1,-1,-1,-1,-1,-1,-1,-1,-1,-1],"split_conditions":[1.12E2,7E0,1.66E2,3.07E1,2.38E-1,1.96E2,1.7E1,3.9E1,6.8E1,-5.6842506E-2,1E2,3.01E1,4.2E1,3.52E1,7.1E1,2.3E1,1.2353375E-2,5.03E-1,3.6E1,2.7E1,9.276987E-2,4.03E-1,5.34E-1,4.2E1,8.55649E-2,3.28E-1,4.65998E-2,3.2823604E-2,9.201019E-2,-3.573357E-2,-1.01073734E-1,9.6E1,9.8E1,4.2E1,5.042659E-3,-6.601419E-2,3.6163867E-2,3.15E-1,7.21E-1,1.43E2,4E1,1.55E2,1.7416818E-2,-5.7172116E-2,3.3036113E-2,4.6064503E-2,-7.687231E-2,-2.8871477E-2,1.3768193E-1,-9.6760534E-2,-1.1353647E-2,-2.1903465E-2,1.2229681E-1,-8.511503E-2,6.665614E-4,-6.663603E-3,8.2725085E-2,9.475006E-2,-1.3713211E-2,-1.1718626E-1,-1.9826405E-2],"split_indices":[1,0,1,5,6,4,3,7,2,0,1,5,7,5,4,5,0,6,7,3,0,6,6,5,0,6,0,0,0,0,0,1,1,3,0,0,0,6,6,1,5,1,0,0,0,0,0,0,0,0,0,0,0,0,0,0,0,0,0,0,0],"split_type":[0,0,0,0,0,0,0,0,0,0,0,0,0,0,0,0,0,0,0,0,0,0,0,0,0,0,0,0,0,0,0,0,0,0,0,0,0,0,0,0,0,0,0,0,0,0,0,0,0,0,0,0,0,0,0,0,0,0,0,0,0],"sum_hessian":[9.682124E1,3.0307577E1,6.6513664E1,2.323176E1,7.0758166E0,5.5755436E1,1.0758229E1,1.0331519E1,1.2900242E1,1.850382E0,5.225435E0,4.778418E1,7.971259E0,4.174347E0,6.583882E0,8.978761E0,1.3527582E0,5.4424095E0,7.457833E0,2.3277047E0,2.89773E0,1.6641829E1,3.1142351E1,6.5414686E0,1.4297905E0,2.5405312E0,1.6338161E0,1.8214018E0,4.76248E0,1.8484812E0,7.1302795E0,3.0801754E0,2.3622339E0,5.5396404E0,1.9181921E0,1.2070521E0,1.1206526E0,9.784648E0,6.85718E0,2.0841013E1,1.0301337E1,4.604514E0,1.9369549E0,1.1025016E0,1.4380294E0,1.3904028E0,1.6897726E0,1.2199944E0,1.1422396E0,4.1849437E0,1.3546966E0,8.165994E0,1.618654E0,3.9830778E0,2.8741026E0,1.691784E1,3.9231744E0,7.037513E0,3.263825E0,3.5095632E0,1.0949508E0],"tree_param":{"num_deleted":"0","num_feature":"8","num_nodes":"61","size_leaf_vector":"1"}},{"base_weights":[-4.505066E-3,-5.586461E-1,9.3946315E-2,-8.1521404E-1,-5.070052E-2,1.68176E-2,5.6957424E-1,-9.5010914E-2,-3.032182E-1,4.6009535E-1,-4.4751632E-1,-4.1817406E-1,9.309269E-2,-7.6625585E-3,6.881644E-1,-6.2940374E-2,2.272117E-2,6.0404815E-2,7.981576E-3,7.0868614E-3,-7.23649E-2,-8.300919E-1,2.0343609E-1,1.429484E-2,5.615567E-1,8.0614096E-1,-1.4311673E-2,9.194831E-3,-1.02623515E-1,4.7473645E-1,-4.3426387E-2,9.020483E-2,-5.617923E-1,3.243922E-3,1.0069304E-1,3.697429E-1,9.849652E-2,7.449481E-2,-1.5306874E-2,1.4328902E-2,-8.069661E-2,-9.533898E-2,6.9947876E-2,5.388519E-2,-6.4969026E-2,-1.9053146E-2,8.0784254E-2],"categories":[],"categories_nodes":[],"categories_segments":[],"categories_sizes":[],"default_left":[0,0,0,0,0,0,0,0,0,0,0,0,0,0,0,0,0,0,0,0,0,0,0,0,0,0,0,0,0,0,0,0,0,0,0,0,0,0,0,0,0,0,0,0,0,0,0],"id":20,"left_children":[1,3,5,7,9,11,13,-1,15,17,19,21,23,-1,25,-1,-1,-1,-1,-1,-1,27,29,31,33,35,-1,-1,-1,37,-1,39,41,43,-1,45,-1,-1,-1,-1,-1,-1,-1,-1,-1,-1,-1],"loss_changes":[5.2765107E0,1.8600497E0,3.0046318E0,3.768201E-1,1.4144717E0,2.418897E0,9.289923E-1,0E0,7.4446845E-1,1.2148714E-1,6.0419285E-1,2.9556236E0,2.2750106E0,0E0,1.0727139E0,0E0,0E0,0E0,0E0,0E0,0E0,1.3137875E0,1.0955703E0,2.4107614E0,2.2045763E0,3.1468964E-1,0E0,0E0,0E0,8.068814E-1,0E0,2.4276981E0,3.83864E0,2.0788062E0,0E0,1.1675436E0,0E0,0E0,0E0,0E0,0E0,0E0,0E0,0E0,0E0,0E0,0E0],"parents":[2147483647,0,0,1,1,2,2,3,3,4,4,5,5,6,6,8,8,9,9,10,10,11,11,12,12,14,14,21,21,22,22,23,23,24,24,25,25,29,29,31,31,32,32,33,33,35,35],"right_children":[2,4,6,8,10,12,14,-1,16,18,20,22,24,-1,26,-1,-1,-1,-1,-1,-1,28,30,32,34,36,-1,-1,-1,38,-1,40,42,44,-1,46,-1,-1,-1,-1,-1,-1,-1,-1,-1,-1,-1],"split_conditions":[1E2,3.1E1,1.66E2,9.5E1,3.3E1,1.91E-1,2.86E1,-9.5010914E-2,2.9E1,9.1E1,7E1,6E0,4.08E1,-7.6625585E-3,1.222E0,-6.2940374E-2,2.272117E-2,6.0404815E-2,7.981576E-3,7.0868614E-3,-7.23649E-2,5.4E1,2.8E1,1.96E2,2.9E1,3.02E-1,-1.4311673E-2,9.194831E-3,-1.02623515E-1,8.4E1,-4.3426387E-2,4E1,4.3E1,1.32E2,1.0069304E-1,3.52E1,9.849652E-2,7.449481E-2,-1.5306874E-2,1.4328902E-2,-8.069661E-2,-9.533898E-2,6.9947876E-2,5.388519E-2,-6.4969026E-2,-1.9053146E-2,8.0784254E-2],"split_indices":[1,3,1,1,3,6,5,0,7,1,2,0,5,0,6,0,0,0,0,0,0,2,3,4,7,6,0,0,0,2,0,5,7,4,0,5,0,0,0,0,0,0,0,0,0,0,0],"split_type":[0,0,0,0,0,0,0,0,0,0,0,0,0,0,0,0,0,0,0,0,0,0,0,0,0,0,0,0,0,0,0,0,0,0,0,0,0,0,0,0,0,0,0,0,0,0,0],"sum_hessian":[9.475543E1,1.3589812E1,8.116562E1,8.627208E0,4.962605E0,7.0731094E1,1.0434527E1,6.15093E0,2.4762778E0,2.0999734E0,2.8626316E0,9.883533E0,6.0847557E1,1.6728737E0,8.761654E0,1.41781E0,1.0584677E0,1.0964767E0,1.0034969E0,1.2532512E0,1.6093804E0,5.742682E0,4.1408505E0,5.296852E1,7.8790393E0,7.699214E0,1.0624398E0,1.1005197E0,4.6421623E0,3.0842493E0,1.056601E0,4.7546783E1,5.4217377E0,3.9431977E0,3.9358416E0,3.129557E0,4.5696573E0,2.025758E0,1.0584912E0,4.5684017E1,1.8627628E0,4.323491E0,1.0982468E0,2.2622092E0,1.6809886E0,1.621262E0,1.5082948E0],"tree_param":{"num_deleted":"0","num_feature":"8","num_nodes":"47","size_leaf_vector":"1"}},{"base_weights":[-5.180384E-3,-3.375992E-1,1.4442573E-1,-4.8834735E-1,1.4957233E-1,6.380941E-2,5.8445317E-1,-5.4657465E-1,3.428867E-2,-3.850122E-1,5.472672E-1,1.1640587E-1,-9.119039E-2,7.587535E-1,-3.0380849E-2,-7.7519053E-1,-2.1276833E-1,9.812463E-3,-7.802055E-2,9.114421E-2,-3.2016966E-2,-2.6378794E-2,4.2813295E-1,1.0203127E0,3.715376E-1,-1.862561E-1,-9.363007E-1,-6.7563236E-1,2.739055E-1,9.635466E-2,-5.9455764E-1,-1.837239E-1,7.148384E-1,3.1931635E-2,1.16499E-1,-4.583211E-2,7.7285624E-1,-6.628656E-2,3.9346974E-2,-9.8942695E-3,-1.0226705E-1,-1.1976833E-2,-9.113686E-2,7.0507936E-2,-4.8609167E-2,-9.644762E-3,5.729977E-2,-1.1090048E-1,1.313584E-2,2.0417994E-2,-8.216475E-2,8.480417E-2,9.301646E-3,9.442109E-2,1.7987277E-2],"categories":[],"categories_nodes":[],"categories_segments":[],"categories_sizes":[],"default_left":[0,0,0,0,0,0,0,0,0,0,0,0,0,0,0,0,0,0,0,0,0,0,0,0,0,0,0,0,0,0,0,0,0,0,0,0,0,0,0,0,0,0,0,0,0,0,0,0,0,0,0,0,0,0,0],"id":21,"left_children":[1,3,5,7,9,11,13,15,-1,17,19,21,-1,23,-1,25,27,-1,-1,-1,-1,29,31,33,35,37,39,41,43,45,47,49,51,-1,-1,-1,53,-1,-1,-1,-1,-1,-1,-1,-1,-1,-1,-1,-1,-1,-1,-1,-1,-1,-1],"loss_changes":[4.740983E0,2.245638E0,2.2956939E0,1.2922406E0,1.8597252E0,3.0162718E0,1.7881761E0,1.4924359E0,0E0,8.2038593E-1,1.8272815E0,2.4456606E0,0E0,5.016842E-1,0E0,1.0127544E0,2.4841735E0,0E0,0E0,0E0,0E0,2.7387931E0,3.1555758E0,9.6318245E-2,2.0456145E0,1.3483002E0,5.913601E-1,6.1411786E-1,2.2062242E0,3.0403626E0,2.7486825E0,1.7257887E0,9.103837E-1,0E0,0E0,0E0,2.1582389E-1,0E0,0E0,0E0,0E0,0E0,0E0,0E0,0E0,0E0,0E0,0E0,0E0,0E0,0E0,0E0,0E0,0E0,0E0],"parents":[2147483647,0,0,1,1,2,2,3,3,4,4,5,5,6,6,7,7,9,9,10,10,11,11,13,13,15,15,16,16,21,21,22,22,23,23,24,24,25,25,26,26,27,27,28,28,29,29,30,30,31,31,32,32,36,36],"right_children":[2,4,6,8,10,12,14,16,-1,18,20,22,-1,24,-1,26,28,-1,-1,-1,-1,30,32,34,36,38,40,42,44,46,48,50,52,-1,-1,-1,54,-1,-1,-1,-1,-1,-1,-1,-1,-1,-1,-1,-1,-1,-1,-1,-1,-1,-1],"split_conditions":[1.12E2,7E0,4.09E1,4.7E1,2.4E1,4E1,2.55E2,4.96E-1,3.428867E-2,4.3E1,4E1,4.2E1,-9.119039E-2,4.44E-1,-3.0380849E-2,8E0,3.27E1,9.812463E-3,-7.802055E-2,9.114421E-2,-3.2016966E-2,1.91E2,2.81E1,2.4E-1,6.1E-1,3.1E1,8.2E1,1.9E1,3.84E1,5.34E-1,1.55E2,6.1E1,3.76E1,3.1931635E-2,1.16499E-1,-4.583211E-2,4.42E1,-6.628656E-2,3.9346974E-2,-9.8942695E-3,-1.0226705E-1,-1.1976833E-2,-9.113686E-2,7.0507936E-2,-4.8609167E-2,-9.644762E-3,5.729977E-2,-1.1090048E-1,1.313584E-2,2.0417994E-2,-8.216475E-2,8.480417E-2,9.301646E-3,9.442109E-2,1.7987277E-2],"split_indices":[1,0,5,7,3,5,4,6,0,7,3,7,0,6,0,3,5,0,0,0,0,4,5,6,6,7,1,3,5,6,1,7,5,0,0,0,5,0,0,0,0,0,0,0,0,0,0,0,0,0,0,0,0,0,0],"split_type":[0,0,0,0,0,0,0,0,0,0,0,0,0,0,0,0,0,0,0,0,0,0,0,0,0,0,0,0,0,0,0,0,0,0,0,0,0,0,0,0,0,0,0,0,0,0,0,0,0,0,0,0,0,0,0],"sum_hessian":[9.335042E1,2.8583172E1,6.476725E1,2.1826778E1,6.756393E0,5.5706425E1,9.060824E0,2.0717957E1,1.1088231E0,2.8957684E0,3.8606243E0,5.369278E1,2.0136476E0,7.6963887E0,1.3644351E0,1.1511638E1,9.206318E0,1.6411334E0,1.2546351E0,2.6833475E0,1.1772768E0,3.745303E1,1.623975E1,3.617691E0,4.078698E0,2.9358366E0,8.575801E0,4.519583E0,4.6867347E0,3.1482784E1,5.970245E0,5.296245E0,1.0943504E1,1.1675801E0,2.450111E0,1.2832068E0,2.7954912E0,1.5325063E0,1.4033302E0,1.0024631E0,7.573338E0,1.7950143E0,2.724569E0,3.0363593E0,1.6503756E0,2.2983572E1,8.499211E0,3.1852024E0,2.7850423E0,3.7163591E0,1.5798857E0,8.713207E0,2.2302969E0,1.7092601E0,1.086231E0],"tree_param":{"num_deleted":"0","num_feature":"8","num_nodes":"55","size_leaf_vector":"1"}},{"base_weights":[-6.430746E-3,-5.213506E-1,8.097645E-2,-7.84005E-1,-2.9138397E-2,9.937734E-3,5.298834E-1,-9.271034E-2,-2.642532E-1,4.4563424E-2,-4.1195172E-1,-4.0077177E-1,8.0705546E-2,1.1350413E-1,7.5007963E-1,-5.916366E-2,2.2411406E-2,-6.970911E-2,1.0198681E-2,-7.846392E-1,1.6411412E-1,-2.822371E-3,4.6445054E-1,2.986799E-1,-2.7557E-2,2.7704606E-2,8.529918E-2,1.0784883E-2,-9.853805E-2,4.1545394E-1,-4.2066183E-2,-5.0389606E-1,6.301622E-2,1.0549108E-1,8.5580033E-1,-1.9136611E-2,7.17988E-2,6.727345E-2,-1.6517837E-2,-7.966937E-2,-8.46077E-3,8.985997E-2,1.6593535E-3,8.868589E-2,-2.2489369E-2,1.0250997E-1,1.8247066E-2],"categories":[],"categories_nodes":[],"categories_segments":[],"categories_sizes":[],"default_left":[0,0,0,0,0,0,0,0,0,0,0,0,0,0,0,0,0,0,0,0,0,0,0,0,0,0,0,0,0,0,0,0,0,0,0,0,0,0,0,0,0,0,0,0,0,0,0],"id":22,"left_children":[1,3,5,7,9,11,13,-1,15,-1,17,19,21,23,25,-1,-1,-1,-1,27,29,31,33,35,-1,-1,-1,-1,-1,37,-1,39,41,43,45,-1,-1,-1,-1,-1,-1,-1,-1,-1,-1,-1,-1],"loss_changes":[4.2168827E0,1.7346854E0,2.551014E0,4.1143274E-1,1.2320565E0,2.0734923E0,9.172485E-1,0E0,6.608486E-1,0E0,6.152617E-1,2.4033527E0,1.9481506E0,4.3966654E-1,1.03125095E-1,0E0,0E0,0E0,0E0,1.256202E0,9.2010915E-1,1.7100905E0,1.435771E0,9.2654616E-1,0E0,0E0,0E0,0E0,0E0,7.161097E-1,0E0,6.715807E-1,1.7637936E0,1.9566083E0,3.893652E-1,0E0,0E0,0E0,0E0,0E0,0E0,0E0,0E0,0E0,0E0,0E0,0E0],"parents":[2147483647,0,0,1,1,2,2,3,3,4,4,5,5,6,6,8,8,10,10,11,11,12,12,13,13,14,14,19,19,20,20,21,21,22,22,23,23,29,29,31,31,32,32,33,33,34,34],"right_children":[2,4,6,8,10,12,14,-1,16,-1,18,20,22,24,26,-1,-1,-1,-1,28,30,32,34,36,-1,-1,-1,-1,-1,38,-1,40,42,44,46,-1,-1,-1,-1,-1,-1,-1,-1,-1,-1,-1,-1],"split_conditions":[1E2,3.1E1,1.66E2,9.5E1,3.3E1,1.91E-1,1.7E1,-9.271034E-2,2.9E1,4.4563424E-2,4.2E1,6E0,8E0,5.39E-1,7.1E1,-5.916366E-2,2.2411406E-2,-6.970911E-2,1.0198681E-2,5.4E1,2.8E1,2.63E1,8.2E1,3.52E1,-2.7557E-2,2.7704606E-2,8.529918E-2,1.0784883E-2,-9.853805E-2,8.4E1,-4.2066183E-2,3E0,2.72E1,6.8E1,3.77E1,-1.9136611E-2,7.17988E-2,6.727345E-2,-1.6517837E-2,-7.966937E-2,-8.46077E-3,8.985997E-2,1.6593535E-3,8.868589E-2,-2.2489369E-2,1.0250997E-1,1.8247066E-2],"split_indices":[1,3,1,1,3,6,3,0,7,0,3,0,0,6,4,0,0,0,0,2,3,5,2,5,0,0,0,0,0,2,0,0,5,2,5,0,0,0,0,0,0,0,0,0,0,0,0],"split_type":[0,0,0,0,0,0,0,0,0,0,0,0,0,0,0,0,0,0,0,0,0,0,0,0,0,0,0,0,0,0,0,0,0,0,0,0,0,0,0,0,0,0,0,0,0,0,0],"sum_hessian":[9.1754456E1,1.2594579E1,7.915988E1,7.8257713E0,4.768808E0,6.9226974E1,9.932907E0,5.521771E0,2.3040004E0,2.05547E0,2.7133377E0,9.489621E0,5.973735E1,3.9600792E0,5.9728274E0,1.2527467E0,1.0512537E0,1.5159175E0,1.1974201E0,5.418479E0,4.0711417E0,4.9874134E1,9.863216E0,2.840503E0,1.1195761E0,1.7269589E0,4.2458687E0,1.0799243E0,4.3385544E0,3.0498502E0,1.0212916E0,5.0194454E0,4.485469E1,5.806684E0,4.056533E0,1.560435E0,1.280068E0,2.003477E0,1.0463731E0,2.4255354E0,2.5939097E0,1.3946593E0,4.346003E1,1.2250619E0,4.581622E0,2.8240352E0,1.2324975E0],"tree_param":{"num_deleted":"0","num_feature":"8","num_nodes":"47","size_leaf_vector":"1"}},{"base_weights":[-4.9951077E-3,-3.2296494E-1,1.2648316E-1,-9.200793E-2,-1.3919523E-1,-7.279485E-2,3.412282E-1,-3.6826077E-1,1.8542492E-1,2.534311E-1,-3.5744897E-1,5.7228785E-2,5.021062E-1,-5.471312E-1,1.8901473E-1,4.5163947E-1,-6.1060965E-2,4.1461676E-1,-4.6489078E-1,-6.877119E-1,4.979045E-2,-2.8104007E-1,4.2006144E-1,1.10944055E-1,3.456221E-1,-2.8441903E-1,-1.0153133E-1,5.7432104E-2,-2.504984E-2,8.0784574E-2,1.6224839E-1,-9.4616186E-4,8.2541203E-1,-8.571449E-2,1.89215E-2,-9.2499185E-1,2.979726E-2,2.4799122E-1,-7.791004E-2,-5.659734E-2,1.24519154E-1,3.1009235E-4,7.7280596E-2,-2.9128292E-1,4.8270845E-1,-6.0385264E-2,4.7232013E-2,-1.751448E-2,5.784445E-2,-6.899856E-2,2.608268E-2,1.0441377E-1,1.9535942E-2,3.7869203E-3,-1.1045237E-1,-4.1364323E-2,4.6078905E-2,5.100732E-2,-5.484597E-2,5.5006504E-2,-3.0813282E-2,-5.5135157E-2,6.333727E-2,-6.762946E-2,2.3462614E-2,7.0695974E-2,-5.3796656E-3],"categories":[],"categories_nodes":[],"categories_segments":[],"categories_sizes":[],"default_left":[0,0,0,0,0,0,0,0,0,0,0,0,0,0,0,0,0,0,0,0,0,0,0,0,0,0,0,0,0,0,0,0,0,0,0,0,0,0,0,0,0,0,0,0,0,0,0,0,0,0,0,0,0,0,0,0,0,0,0,0,0,0,0,0,0,0,0],"id":23,"left_children":[1,3,5,-1,7,9,11,13,15,17,19,21,23,25,27,29,-1,31,33,35,37,39,41,-1,43,45,-1,-1,-1,-1,47,49,51,-1,-1,53,55,57,-1,-1,59,61,-1,63,65,-1,-1,-1,-1,-1,-1,-1,-1,-1,-1,-1,-1,-1,-1,-1,-1,-1,-1,-1,-1,-1,-1],"loss_changes":[3.8660696E0,2.8399343E0,2.825754E0,0E0,1.6938388E0,3.3195999E0,1.4186475E0,1.4143739E0,2.3332999E0,2.136534E0,2.5875404E0,1.6626056E0,1.5262876E0,9.6737075E-1,8.1090075E-1,6.782042E-1,0E0,2.4317055E0,1.0725528E0,1.8237634E0,1.743067E0,8.9229786E-1,9.581293E-1,0E0,1.6624472E0,2.2023692E0,0E0,0E0,0E0,0E0,8.852762E-1,1.6369684E0,7.830334E-1,0E0,0E0,1.4177608E0,8.768569E-1,2.0272713E0,0E0,0E0,8.607236E-1,1.7307876E0,0E0,9.1004735E-1,1.8089416E0,0E0,0E0,0E0,0E0,0E0,0E0,0E0,0E0,0E0,0E0,0E0,0E0,0E0,0E0,0E0,0E0,0E0,0E0,0E0,0E0,0E0,0E0],"parents":[2147483647,0,0,1,1,2,2,4,4,5,5,6,6,7,7,8,8,9,9,10,10,11,11,12,12,13,13,14,14,15,15,17,17,18,18,19,19,20,20,21,21,22,22,24,24,25,25,30,30,31,31,32,32,35,35,36,36,37,37,40,40,41,41,43,43,44,44],"right_children":[2,4,6,-1,8,10,12,14,16,18,20,22,24,26,28,30,-1,32,34,36,38,40,42,-1,44,46,-1,-1,-1,-1,48,50,52,-1,-1,54,56,58,-1,-1,60,62,-1,64,66,-1,-1,-1,-1,-1,-1,-1,-1,-1,-1,-1,-1,-1,-1,-1,-1,-1,-1,-1,-1,-1,-1],"split_conditions":[2.97E1,1.05E2,1.28E2,-9.200793E-2,6E0,1.4E1,3.06E-1,4.1E1,5.5E1,8.6E1,4.95E-1,3.8E1,3.74E-1,4E0,7.4E1,3.5E1,-6.1060965E-2,1.12E2,3.69E1,1.45E2,9.25E-1,2.6E1,1.45E2,1.10944055E-1,4.35E-1,3E0,-1.0153133E-1,5.7432104E-2,-2.504984E-2,8.0784574E-2,4.9E1,2.7E1,3.81E-1,-8.571449E-2,1.89215E-2,3.12E1,7.8E1,1.2089453E2,-7.791004E-2,-5.659734E-2,2.6E1,7E0,7.7280596E-2,1.42E2,4E1,-6.0385264E-2,4.7232013E-2,-1.751448E-2,5.784445E-2,-6.899856E-2,2.608268E-2,1.0441377E-1,1.9535942E-2,3.7869203E-3,-1.1045237E-1,-4.1364323E-2,4.6078905E-2,5.100732E-2,-5.484597E-2,5.5006504E-2,-3.0813282E-2,-5.5135157E-2,6.333727E-2,-6.762946E-2,2.3462614E-2,7.0695974E-2,-5.3796656E-3],"split_indices":[5,1,1,0,0,4,6,7,7,2,6,7,6,0,2,7,0,1,5,4,6,3,1,0,6,0,0,0,0,0,7,7,6,0,0,5,2,1,0,0,7,0,0,1,5,0,0,0,0,0,0,0,0,0,0,0,0,0,0,0,0,0,0,0,0,0,0],"split_type":[0,0,0,0,0,0,0,0,0,0,0,0,0,0,0,0,0,0,0,0,0,0,0,0,0,0,0,0,0,0,0,0,0,0,0,0,0,0,0,0,0,0,0,0,0,0,0,0,0,0,0,0,0,0,0,0,0,0,0,0,0,0,0,0,0,0,0],"sum_hessian":[9.049903E1,2.6047878E1,6.445116E1,5.187072E0,2.0860806E1,3.3772312E1,3.0678843E1,1.2151655E1,8.709151E0,1.5788123E1,1.7984188E1,1.1584445E1,1.9094398E1,9.212799E0,2.9388566E0,6.8507285E0,1.8584224E0,1.3239977E1,2.5481462E0,9.550339E0,8.433848E0,6.1118217E0,5.472623E0,2.664263E0,1.6430136E1,6.9310555E0,2.281743E0,1.4025592E0,1.5362974E0,2.2677994E0,4.582929E0,7.0777645E0,6.162213E0,1.3988668E0,1.1492795E0,6.959624E0,2.5907152E0,7.3719225E0,1.0619264E0,3.3574457E0,2.754376E0,2.955993E0,2.51663E0,2.7108197E0,1.3719316E1,5.015819E0,1.9152365E0,2.850954E0,1.7319752E0,1.49825E0,5.5795145E0,4.086383E0,2.0758297E0,1.217739E0,5.741885E0,1.2967563E0,1.293959E0,5.817251E0,1.5546708E0,1.2517779E0,1.502598E0,1.6485183E0,1.3074746E0,1.3999673E0,1.3108524E0,9.451158E0,4.268158E0],"tree_param":{"num_deleted":"0","num_feature":"8","num_nodes":"67","size_leaf_vector":"1"}},{"base_weights":[-6.121134E-3,-4.8386264E-1,7.14421E-2,-7.506138E-1,-1.5155737E-2,6.938592E-3,4.9155346E-1,-9.01357E-2,-2.2952622E-1,4.349667E-2,-3.8967276E-1,-3.8665575E-1,7.33714E-2,9.760378E-2,7.0413125E-1,2.3145089E-2,-5.8877885E-2,-6.698363E-2,9.727981E-3,-7.408167E-1,1.1779037E-1,4.6384265E-3,4.8324436E-1,-2.5613058E-2,2.9242477E-1,2.6160395E-2,8.0118364E-1,9.026709E-3,-9.35278E-2,3.574761E-1,-4.2000595E-2,6.8285674E-2,-5.0085455E-1,-4.4171844E-2,9.154981E-2,-1.5906421E-2,5.9285887E-2,9.015062E-2,2.1664979E-2,6.1226405E-2,-1.8640535E-2,2.2991104E-2,-1.632129E-2,-8.344081E-2,4.611098E-2,5.4254342E-2,-5.2264363E-2],"categories":[],"categories_nodes":[],"categories_segments":[],"categories_sizes":[],"default_left":[0,0,0,0,0,0,0,0,0,0,0,0,0,0,0,0,0,0,0,0,0,0,0,0,0,0,0,0,0,0,0,0,0,0,0,0,0,0,0,0,0,0,0,0,0,0,0],"id":24,"left_children":[1,3,5,7,9,11,13,-1,15,-1,17,19,21,23,25,-1,-1,-1,-1,27,29,31,33,-1,35,-1,37,-1,-1,39,-1,41,43,45,-1,-1,-1,-1,-1,-1,-1,-1,-1,-1,-1,-1,-1],"loss_changes":[3.3606238E0,1.5722287E0,2.11282E0,4.2555714E-1,1.1159906E0,1.8250592E0,8.005581E-1,0E0,6.576372E-1,0E0,5.5522245E-1,1.8885415E0,1.6776701E0,4.0562057E-1,7.30567E-2,0E0,0E0,0E0,0E0,1.0639312E0,7.9744333E-1,1.7096874E0,1.9905509E0,0E0,5.773984E-1,0E0,9.2772484E-2,0E0,0E0,6.703347E-1,0E0,1.8010634E0,2.291915E0,1.6329648E0,0E0,0E0,0E0,0E0,0E0,0E0,0E0,0E0,0E0,0E0,0E0,0E0,0E0],"parents":[2147483647,0,0,1,1,2,2,3,3,4,4,5,5,6,6,8,8,10,10,11,11,12,12,13,13,14,14,19,19,20,20,21,21,22,22,24,24,26,26,29,29,31,31,32,32,33,33],"right_children":[2,4,6,8,10,12,14,-1,16,-1,18,20,22,24,26,-1,-1,-1,-1,28,30,32,34,-1,36,-1,38,-1,-1,40,-1,42,44,46,-1,-1,-1,-1,-1,-1,-1,-1,-1,-1,-1,-1,-1],"split_conditions":[1E2,3.1E1,1.66E2,9.5E1,3.3E1,1.91E-1,1.7E1,-9.01357E-2,9.8E1,4.349667E-2,4.2E1,6E0,4.08E1,7.2E1,7.1E1,2.3145089E-2,-5.8877885E-2,-6.698363E-2,9.727981E-3,5.4E1,2.8E1,1.96E2,2.9E1,-2.5613058E-2,1.84E2,2.6160395E-2,7.21E-1,9.026709E-3,-9.35278E-2,8.4E1,-4.2000595E-2,7.5E1,4.2E1,3.74E-1,9.154981E-2,-1.5906421E-2,5.9285887E-2,9.015062E-2,2.1664979E-2,6.1226405E-2,-1.8640535E-2,2.2991104E-2,-1.632129E-2,-8.344081E-2,4.611098E-2,5.4254342E-2,-5.2264363E-2],"split_indices":[1,3,1,1,3,6,3,0,1,0,3,0,5,2,4,0,0,0,0,2,3,4,7,0,1,0,6,0,0,2,0,2,7,6,0,0,0,0,0,0,0,0,0,0,0,0,0],"split_type":[0,0,0,0,0,0,0,0,0,0,0,0,0,0,0,0,0,0,0,0,0,0,0,0,0,0,0,0,0,0,0,0,0,0,0,0,0,0,0,0,0,0,0,0,0,0,0],"sum_hessian":[8.875955E1,1.1665988E1,7.709357E1,7.051418E0,4.6145697E0,6.7713425E1,9.380139E0,4.903224E0,2.1481938E0,2.0224419E0,2.592128E0,9.082442E0,5.863098E1,3.7989883E0,5.5811515E0,1.0967002E0,1.0514938E0,1.4070357E0,1.1850923E0,5.0607924E0,4.02165E0,5.1077023E1,7.553961E0,1.2374558E0,2.5615325E0,1.6685591E0,3.9125922E0,1.0612137E0,3.999579E0,3.0137658E0,1.0078841E0,4.613324E1,4.9437814E0,3.8068397E0,3.747121E0,1.2114825E0,1.35005E0,2.8766184E0,1.0359738E0,1.966707E0,1.0470588E0,2.7170483E1,1.8962757E1,3.7693784E0,1.1744027E0,1.6498452E0,2.1569946E0],"tree_param":{"num_deleted":"0","num_feature":"8","num_nodes":"47","size_leaf_vector":"1"}},{"base_weights":[-5.896418E-3,-1.9988728E-1,1.8007125E-1,-7.188265E-1,-8.880313E-2,3.7468098E-2,4.1685453E-1,-3.3375877E-1,-8.638469E-2,2.3351426E-1,-2.6491284E-1,8.960449E-2,-7.7827565E-2,5.4449E-1,-2.8799924E-1,-6.36686E-2,1.4555997E-2,-1.01073496E-1,7.4908453E-1,-8.151991E-1,-7.046946E-2,-4.816448E-1,1.827039E-1,6.523929E-1,-4.4795796E-2,-7.458766E-2,3.556162E-2,-8.082896E-2,2.3028414E-1,-1.6577076E-2,1.0152642E-1,-4.2697382E-1,-1.1734307E-1,-2.3898733E-1,5.394299E-1,-7.102418E-1,8.387263E-3,1.02589786E-1,-7.086047E-2,1.9069602E-1,7.751964E-1,8.063749E-2,-2.656485E-2,-6.451292E-2,1.6211567E-2,-4.240222E-2,3.2078497E-2,-1.5625062E-3,8.59931E-2,-1.07914224E-1,-3.3217676E-2,4.9419314E-2,-5.0736647E-2,-3.1859994E-2,5.169503E-2,8.374821E-2,-5.5635672E-2,3.522156E-2,9.4248615E-2],"categories":[],"categories_nodes":[],"categories_segments":[],"categories_sizes":[],"default_left":[0,0,0,0,0,0,0,0,0,0,0,0,0,0,0,0,0,0,0,0,0,0,0,0,0,0,0,0,0,0,0,0,0,0,0,0,0,0,0,0,0,0,0,0,0,0,0,0,0,0,0,0,0,0,0,0,0,0,0],"id":25,"left_children":[1,3,5,7,9,11,13,15,-1,17,19,-1,21,23,25,-1,-1,27,29,31,33,35,37,39,-1,-1,-1,-1,41,-1,-1,43,-1,45,47,49,51,-1,53,55,57,-1,-1,-1,-1,-1,-1,-1,-1,-1,-1,-1,-1,-1,-1,-1,-1,-1,-1],"loss_changes":[3.2351377E0,2.4654715E0,1.5309083E0,1.3582325E-1,2.178069E0,3.0081925E0,1.6967263E0,6.310036E-1,0E0,2.4397254E0,2.5722997E0,0E0,2.9380693E0,1.8812771E0,1.2313751E0,0E0,0E0,2.3401701E0,1.5106297E0,3.7824678E-1,2.107914E0,1.2268262E0,3.7482886E0,6.340699E-1,0E0,0E0,0E0,0E0,2.2248297E0,0E0,0E0,6.965333E-1,0E0,1.7704109E0,8.096025E-1,6.7966247E-1,1.367019E0,0E0,2.2256067E0,2.506736E0,4.1575956E-1,0E0,0E0,0E0,0E0,0E0,0E0,0E0,0E0,0E0,0E0,0E0,0E0,0E0,0E0,0E0,0E0,0E0,0E0],"parents":[2147483647,0,0,1,1,2,2,3,3,4,4,5,5,6,6,7,7,9,9,10,10,12,12,13,13,14,14,17,17,18,18,19,19,20,20,21,21,22,22,23,23,28,28,31,31,33,33,34,34,35,35,36,36,38,38,39,39,40,40],"right_children":[2,4,6,8,10,12,14,16,-1,18,20,-1,22,24,26,-1,-1,28,30,32,34,36,38,40,-1,-1,-1,-1,42,-1,-1,44,-1,46,48,50,52,-1,54,56,58,-1,-1,-1,-1,-1,-1,-1,-1,-1,-1,-1,-1,-1,-1,-1,-1,-1,-1],"split_conditions":[1.24E2,2.65E1,4.1E1,2.3E1,6.8E1,5.5E1,6.1E1,1.07E2,-8.638469E-2,4E0,7.2E1,8.960449E-2,3.06E-1,1.154E0,2.89E1,-6.36686E-2,1.4555997E-2,3.1E1,1E2,1.16E2,3.99E1,2.9E1,3.74E-1,1.3E2,-4.4795796E-2,-7.458766E-2,3.556162E-2,-8.082896E-2,3.52E1,-1.6577076E-2,1.0152642E-1,1.08E2,-1.1734307E-1,4.6E1,1.15E2,7E1,1.4E2,1.02589786E-1,1.55E2,3.39E1,2.33E-1,8.063749E-2,-2.656485E-2,-6.451292E-2,1.6211567E-2,-4.240222E-2,3.2078497E-2,-1.5625062E-3,8.59931E-2,-1.07914224E-1,-3.3217676E-2,4.9419314E-2,-5.0736647E-2,-3.1859994E-2,5.169503E-2,8.374821E-2,-5.5635672E-2,3.522156E-2,9.4248615E-2],"split_indices":[1,5,7,5,2,2,7,1,0,0,2,0,6,6,5,0,0,5,1,1,5,3,6,1,0,0,0,0,5,0,0,1,0,7,1,2,4,0,1,5,6,0,0,0,0,0,0,0,0,0,0,0,0,0,0,0,0,0,0],"split_type":[0,0,0,0,0,0,0,0,0,0,0,0,0,0,0,0,0,0,0,0,0,0,0,0,0,0,0,0,0,0,0,0,0,0,0,0,0,0,0,0,0,0,0,0,0,0,0,0,0,0,0,0,0,0,0,0,0,0,0],"sum_hessian":[8.767783E1,4.2876583E1,4.480125E1,6.5952573E0,3.6281326E1,2.868431E1,1.611694E1,2.7075238E0,3.8877335E0,1.2704144E1,2.357718E1,2.5942078E0,2.6090103E1,1.3838557E1,2.278383E0,1.457853E0,1.2496707E0,8.19186E0,4.5122833E0,5.3222957E0,1.8254887E1,9.898686E0,1.6191418E1,1.2790559E1,1.0479981E0,1.2384479E0,1.0399352E0,2.1544E0,6.03746E0,1.1019883E0,3.410295E0,3.6061287E0,1.7161667E0,1.477942E1,3.4754655E0,6.443469E0,3.455217E0,3.039168E0,1.3152249E1,3.22365E0,9.566909E0,2.5034258E0,3.534034E0,2.5621626E0,1.043966E0,1.1289983E1,3.489437E0,1.6204176E0,1.8550478E0,2.3226953E0,4.120774E0,1.800793E0,1.6544238E0,9.574822E0,3.5774276E0,1.6628948E0,1.5607551E0,3.5914905E0,5.9754186E0],"tree_param":{"num_deleted":"0","num_feature":"8","num_nodes":"59","size_leaf_vector":"1"}},{"base_weights":[-5.8525763E-3,-2.972249E-1,1.1240101E-1,-8.809572E-2,-1.3506098E-1,5.6035433E-2,7.5282496E-1,-5.9067285E-1,7.930967E-3,3.5016644E-1,-7.1982846E-2,1.6514163E-2,9.216867E-2,-8.681642E-2,1.7349072E-2,1.374095E-1,-8.004646E-2,6.492588E-1,8.247484E-2,-2.9888755E-1,1.5039243E-1,3.007516E-1,-3.9880565E-1,1.8438497E-1,1.0221964E-1,-4.330135E-1,3.4059954E-1,-4.446903E-1,2.3582202E-1,2.4326019E-1,-3.1879532E-1,-2.1640161E-2,4.3558195E-2,-6.981046E-2,1.6418874E-2,7.680956E-2,-4.864847E-2,-6.580505E-2,1.11441E-2,6.520694E-2,-4.0285528E-4,-6.0371687E-3,-8.592482E-2,-5.8931615E-2,6.717181E-2,-1.5529367E-2,4.4515885E-2,3.2297146E-2,-6.851538E-2],"categories":[],"categories_nodes":[],"categories_segments":[],"categories_sizes":[],"default_left":[0,0,0,0,0,0,0,0,0,0,0,0,0,0,0,0,0,0,0,0,0,0,0,0,0,0,0,0,0,0,0,0,0,0,0,0,0,0,0,0,0,0,0,0,0,0,0,0,0],"id":26,"left_children":[1,3,5,-1,7,9,11,13,15,17,19,-1,-1,-1,-1,21,-1,23,25,27,29,31,33,35,-1,37,39,41,43,45,47,-1,-1,-1,-1,-1,-1,-1,-1,-1,-1,-1,-1,-1,-1,-1,-1,-1,-1],"loss_changes":[3.0355468E0,2.288011E0,2.2212372E0,0E0,1.37806E0,2.235903E0,3.431611E-1,1.2212296E0,1.8926964E0,1.3855894E0,2.1508596E0,0E0,0E0,0E0,0E0,1.4804986E0,0E0,1.2580998E0,1.5620193E0,1.7414722E0,1.0249707E0,9.6424866E-1,7.982359E-1,2.3058836E0,0E0,5.6187385E-1,8.230823E-1,2.6312969E0,2.248594E0,1.5753299E0,1.1677406E0,0E0,0E0,0E0,0E0,0E0,0E0,0E0,0E0,0E0,0E0,0E0,0E0,0E0,0E0,0E0,0E0,0E0,0E0],"parents":[2147483647,0,0,1,1,2,2,4,4,5,5,6,6,7,7,8,8,9,9,10,10,15,15,17,17,18,18,19,19,20,20,21,21,22,22,23,23,25,25,26,26,27,27,28,28,29,29,30,30],"right_children":[2,4,6,-1,8,10,12,14,16,18,20,-1,-1,-1,